<?xml version="1.0"?>
<MethodSetup Method="BDT::BDTG">
  <GeneralInfo>
    <Info name="TMVA Release" value="4.2.1 [262657]"/>
    <Info name="ROOT Release" value="6.22/08 [398856]"/>
    <Info name="Creator" value="chengjie"/>
    <Info name="Date" value="Thu Oct 14 10:09:04 2021"/>
    <Info name="Host" value="Linux lxslc711.ihep.ac.cn 3.10.0-1127.8.2.el7.x86_64 #1 SMP Tue May 12 16:57:42 UTC 2020 x86_64 x86_64 x86_64 GNU/Linux"/>
    <Info name="Dir" value="/junofs/users/chengjie/workdir/PSD/Ana-new0817/TimeProfile_roofit"/>
    <Info name="Training events" value="66053"/>
    <Info name="TrainingTime" value="2.48874168e+01"/>
    <Info name="AnalysisType" value="Classification"/>
  </GeneralInfo>
  <Options>
    <Option name="V" modified="Yes">False</Option>
    <Option name="VerbosityLevel" modified="No">Default</Option>
    <Option name="VarTransform" modified="No">None</Option>
    <Option name="H" modified="Yes">False</Option>
    <Option name="CreateMVAPdfs" modified="No">False</Option>
    <Option name="IgnoreNegWeightsInTraining" modified="No">False</Option>
    <Option name="NTrees" modified="Yes">1000</Option>
    <Option name="MaxDepth" modified="Yes">2</Option>
    <Option name="MinNodeSize" modified="Yes">2.5%</Option>
    <Option name="nCuts" modified="Yes">20</Option>
    <Option name="BoostType" modified="Yes">Grad</Option>
    <Option name="AdaBoostR2Loss" modified="No">quadratic</Option>
    <Option name="UseBaggedBoost" modified="Yes">True</Option>
    <Option name="Shrinkage" modified="Yes">1.000000e-01</Option>
    <Option name="AdaBoostBeta" modified="No">5.000000e-01</Option>
    <Option name="UseRandomisedTrees" modified="No">False</Option>
    <Option name="UseNvars" modified="No">3</Option>
    <Option name="UsePoissonNvars" modified="No">True</Option>
    <Option name="BaggedSampleFraction" modified="Yes">5.000000e-01</Option>
    <Option name="UseYesNoLeaf" modified="No">True</Option>
    <Option name="NegWeightTreatment" modified="No">pray</Option>
    <Option name="Css" modified="No">1.000000e+00</Option>
    <Option name="Cts_sb" modified="No">1.000000e+00</Option>
    <Option name="Ctb_ss" modified="No">1.000000e+00</Option>
    <Option name="Cbb" modified="No">1.000000e+00</Option>
    <Option name="NodePurityLimit" modified="No">5.000000e-01</Option>
    <Option name="SeparationType" modified="No">giniindex</Option>
    <Option name="RegressionLossFunctionBDTG" modified="No">huber</Option>
    <Option name="HuberQuantile" modified="No">7.000000e-01</Option>
    <Option name="DoBoostMonitor" modified="No">False</Option>
    <Option name="UseFisherCuts" modified="No">False</Option>
    <Option name="MinLinCorrForFisher" modified="No">8.000000e-01</Option>
    <Option name="UseExclusiveVars" modified="No">False</Option>
    <Option name="DoPreselection" modified="No">False</Option>
    <Option name="SigToBkgFraction" modified="No">1.000000e+00</Option>
    <Option name="PruneMethod" modified="No">nopruning</Option>
    <Option name="PruneStrength" modified="No">0.000000e+00</Option>
    <Option name="PruningValFraction" modified="No">5.000000e-01</Option>
    <Option name="SkipNormalization" modified="No">False</Option>
    <Option name="nEventsMin" modified="No">0</Option>
    <Option name="UseBaggedGrad" modified="No">False</Option>
    <Option name="GradBaggingFraction" modified="No">5.000000e-01</Option>
    <Option name="UseNTrainEvents" modified="No">0</Option>
    <Option name="NNodesMax" modified="No">0</Option>
  </Options>
  <Variables NVar="6">
    <Variable VarIndex="0" Expression="w1" Label="w1" Title="w1" Unit="" Internal="w1" Type="F" Min="1.00999999e+00" Max="2.09300003e+01"/>
    <Variable VarIndex="1" Expression="w2" Label="w2" Title="w2" Unit="" Internal="w2" Type="F" Min="9.59999979e-01" Max="1.74699993e+01"/>
    <Variable VarIndex="2" Expression="tau1" Label="tau1" Title="tau1" Unit="" Internal="tau1" Type="F" Min="4.68648243e+00" Max="8.40194702e+01"/>
    <Variable VarIndex="3" Expression="tau2" Label="tau2" Title="tau2" Unit="" Internal="tau2" Type="F" Min="8.18401413e+01" Max="8.00000000e+02"/>
    <Variable VarIndex="4" Expression="eta1" Label="eta1" Title="eta1" Unit="" Internal="eta1" Type="F" Min="1.01295382e-01" Max="9.00939226e-01"/>
    <Variable VarIndex="5" Expression="r3_tag" Label="r3_tag" Title="r3_tag" Unit="" Internal="r3_tag" Type="F" Min="4.09600684e+03" Max="5.26802490e+03"/>
  </Variables>
  <Spectators NSpec="6">
    <Spectator SpecIndex="0" Expression="Eqe_tag" Label="Eqe_tag" Title="Eqe_tag" Unit="units" Internal="Eqe_tag" Type="F" Min="1.10000429e+01" Max="3.09999027e+01"/>
    <Spectator SpecIndex="1" Expression="nPE_tag" Label="nPE_tag" Title="nPE_tag" Unit="units" Internal="nPE_tag" Type="F" Min="0.00000000e+00" Max="0.00000000e+00"/>
    <Spectator SpecIndex="2" Expression="vtag" Label="vtag" Title="vtag" Unit="units" Internal="vtag" Type="F" Min="4.00000000e+00" Max="5.00000000e+00"/>
    <Spectator SpecIndex="3" Expression="id_tag" Label="id_tag" Title="id_tag" Unit="units" Internal="id_tag" Type="F" Min="1.00000000e+00" Max="2.00000000e+00"/>
    <Spectator SpecIndex="4" Expression="isoz" Label="isoz" Title="isoz" Unit="units" Internal="isoz" Type="F" Min="0.00000000e+00" Max="6.00000000e+00"/>
    <Spectator SpecIndex="5" Expression="ison" Label="ison" Title="ison" Unit="units" Internal="ison" Type="F" Min="0.00000000e+00" Max="1.10000000e+01"/>
  </Spectators>
  <Classes NClass="2">
    <Class Name="Background" Index="0"/>
    <Class Name="Signal" Index="1"/>
  </Classes>
  <Transformations NTransformations="0"/>
  <MVAPdfs/>
  <Weights NTrees="1000" AnalysisType="1">
    <BinaryTree type="DecisionTree" boostWeight="1.0000000000000000e+00" itree="0">
      <Node pos="s" depth="0" NCoef="0" IVar="3" Cut="1.8443440246582031e+02" cType="1" res="-7.1081660280469805e-05" rms="5.0000000000000000e-01" purity="4.9992898106575012e-01" nType="0">
        <Node pos="l" depth="1" NCoef="0" IVar="1" Cut="1.0798095703125000e+01" cType="1" res="3.0711862444877625e-01" rms="3.9456072449684143e-01" purity="8.0711859464645386e-01" nType="0">
          <Node pos="l" depth="2" NCoef="0" IVar="-1" Cut="0.0000000000000000e+00" cType="1" res="-3.8629457354545593e-02" rms="4.6118772029876709e-01" purity="3.0685269832611084e-01" nType="-99"/>
          <Node pos="r" depth="2" NCoef="0" IVar="-1" Cut="0.0000000000000000e+00" cType="1" res="7.6074913144111633e-02" rms="3.2452300190925598e-01" purity="8.8037461042404175e-01" nType="-99"/>
        </Node>
        <Node pos="r" depth="1" NCoef="0" IVar="4" Cut="6.7982220649719238e-01" cType="1" res="-1.6356886923313141e-01" rms="4.7248834371566772e-01" purity="3.3643114566802979e-01" nType="0">
          <Node pos="l" depth="2" NCoef="0" IVar="-1" Cut="0.0000000000000000e+00" cType="1" res="-4.9774587154388428e-02" rms="4.3366146087646484e-01" purity="2.5112706422805786e-01" nType="-99"/>
          <Node pos="r" depth="2" NCoef="0" IVar="-1" Cut="0.0000000000000000e+00" cType="1" res="2.7986643835902214e-02" rms="4.8001947999000549e-01" purity="6.3993322849273682e-01" nType="-99"/>
        </Node>
      </Node>
    </BinaryTree>
    <BinaryTree type="DecisionTree" boostWeight="1.0000000000000000e+00" itree="1">
      <Node pos="s" depth="0" NCoef="0" IVar="3" Cut="1.8443440246582031e+02" cType="1" res="3.9663561619818211e-03" rms="4.8458561301231384e-01" purity="5.0425708293914795e-01" nType="0">
        <Node pos="l" depth="1" NCoef="0" IVar="1" Cut="1.0699048042297363e+01" cType="1" res="2.7393206954002380e-01" rms="3.8764193654060364e-01" purity="8.0471420288085938e-01" nType="0">
          <Node pos="l" depth="2" NCoef="0" IVar="-1" Cut="0.0000000000000000e+00" cType="1" res="-4.2766809463500977e-02" rms="4.4248688220977783e-01" purity="2.6717957854270935e-01" nType="-99"/>
          <Node pos="r" depth="2" NCoef="0" IVar="-1" Cut="0.0000000000000000e+00" cType="1" res="6.7560970783233643e-02" rms="3.3233684301376343e-01" purity="8.7302535772323608e-01" nType="-99"/>
        </Node>
        <Node pos="r" depth="1" NCoef="0" IVar="4" Cut="6.2199097871780396e-01" cType="1" res="-1.4473544061183929e-01" rms="4.6812608838081360e-01" purity="3.3876001834869385e-01" nType="0">
          <Node pos="l" depth="2" NCoef="0" IVar="-1" Cut="0.0000000000000000e+00" cType="1" res="-5.5536169558763504e-02" rms="3.9859762787818909e-01" purity="1.9813922047615051e-01" nType="-99"/>
          <Node pos="r" depth="2" NCoef="0" IVar="-1" Cut="0.0000000000000000e+00" cType="1" res="5.4487814195454121e-03" rms="4.9515709280967712e-01" purity="5.2156561613082886e-01" nType="-99"/>
        </Node>
      </Node>
    </BinaryTree>
    <BinaryTree type="DecisionTree" boostWeight="1.0000000000000000e+00" itree="2">
      <Node pos="s" depth="0" NCoef="0" IVar="3" Cut="1.8457652282714844e+02" cType="1" res="-3.1575376633554697e-03" rms="4.7116288542747498e-01" purity="4.9664303660392761e-01" nType="0">
        <Node pos="l" depth="1" NCoef="0" IVar="1" Cut="1.0698571205139160e+01" cType="1" res="2.5598821043968201e-01" rms="3.7328550219535828e-01" purity="8.1438416242599487e-01" nType="0">
          <Node pos="l" depth="2" NCoef="0" IVar="-1" Cut="0.0000000000000000e+00" cType="1" res="-3.6707557737827301e-02" rms="4.4752651453018188e-01" purity="2.7704519033432007e-01" nType="-99"/>
          <Node pos="r" depth="2" NCoef="0" IVar="-1" Cut="0.0000000000000000e+00" cType="1" res="6.2894962728023529e-02" rms="3.2633456587791443e-01" purity="8.7835168838500977e-01" nType="-99"/>
        </Node>
        <Node pos="r" depth="1" NCoef="0" IVar="1" Cut="1.1579999923706055e+01" cType="1" res="-1.4071308076381683e-01" rms="4.5967185497283936e-01" purity="3.2798478007316589e-01" nType="0">
          <Node pos="l" depth="2" NCoef="0" IVar="-1" Cut="0.0000000000000000e+00" cType="1" res="-6.8435415625572205e-02" rms="3.2534524798393250e-01" purity="1.2440440058708191e-01" nType="-99"/>
          <Node pos="r" depth="2" NCoef="0" IVar="-1" Cut="0.0000000000000000e+00" cType="1" res="-5.8644609525799751e-03" rms="4.8561909794807434e-01" purity="4.4221422076225281e-01" nType="-99"/>
        </Node>
      </Node>
    </BinaryTree>
    <BinaryTree type="DecisionTree" boostWeight="1.0000000000000000e+00" itree="3">
      <Node pos="s" depth="0" NCoef="0" IVar="3" Cut="1.8443440246582031e+02" cType="1" res="5.0381021574139595e-03" rms="4.6003076434135437e-01" purity="5.0534677505493164e-01" nType="0">
        <Node pos="l" depth="1" NCoef="0" IVar="1" Cut="1.0960000038146973e+01" cType="1" res="2.2701936960220337e-01" rms="3.7027126550674438e-01" purity="8.1011164188385010e-01" nType="0">
          <Node pos="l" depth="2" NCoef="0" IVar="-1" Cut="0.0000000000000000e+00" cType="1" res="-2.0255818963050842e-02" rms="4.6761965751647949e-01" purity="3.7918680906295776e-01" nType="-99"/>
          <Node pos="r" depth="2" NCoef="0" IVar="-1" Cut="0.0000000000000000e+00" cType="1" res="5.9581361711025238e-02" rms="3.1613484025001526e-01" purity="8.8737416267395020e-01" nType="-99"/>
        </Node>
        <Node pos="r" depth="1" NCoef="0" IVar="4" Cut="6.5453130006790161e-01" cType="1" res="-1.1518762260675430e-01" rms="4.5918464660644531e-01" purity="3.4028524160385132e-01" nType="0">
          <Node pos="l" depth="2" NCoef="0" IVar="-1" Cut="0.0000000000000000e+00" cType="1" res="-4.2986530810594559e-02" rms="4.1362243890762329e-01" purity="2.2726675868034363e-01" nType="-99"/>
          <Node pos="r" depth="2" NCoef="0" IVar="-1" Cut="0.0000000000000000e+00" cType="1" res="2.0941518247127533e-02" rms="4.8197150230407715e-01" purity="5.9838813543319702e-01" nType="-99"/>
        </Node>
      </Node>
    </BinaryTree>
    <BinaryTree type="DecisionTree" boostWeight="1.0000000000000000e+00" itree="4">
      <Node pos="s" depth="0" NCoef="0" IVar="3" Cut="1.8662449645996094e+02" cType="1" res="2.9542387928813696e-03" rms="4.5016509294509888e-01" purity="5.0393354892730713e-01" nType="0">
        <Node pos="l" depth="1" NCoef="0" IVar="1" Cut="1.0532381057739258e+01" cType="1" res="2.0184679329395294e-01" rms="3.7248989939689636e-01" purity="7.9666733741760254e-01" nType="0">
          <Node pos="l" depth="2" NCoef="0" IVar="-1" Cut="0.0000000000000000e+00" cType="1" res="-4.5169770717620850e-02" rms="4.0486648678779602e-01" purity="2.0770712196826935e-01" nType="-99"/>
          <Node pos="r" depth="2" NCoef="0" IVar="-1" Cut="0.0000000000000000e+00" cType="1" res="5.2956707775592804e-02" rms="3.3792641758918762e-01" purity="8.6129254102706909e-01" nType="-99"/>
        </Node>
        <Node pos="r" depth="1" NCoef="0" IVar="4" Cut="7.0668768882751465e-01" cType="1" res="-1.1503002047538757e-01" rms="4.5074152946472168e-01" purity="3.3028209209442139e-01" nType="0">
          <Node pos="l" depth="2" NCoef="0" IVar="-1" Cut="0.0000000000000000e+00" cType="1" res="-3.4787833690643311e-02" rms="4.2918339371681213e-01" purity="2.6367154717445374e-01" nType="-99"/>
          <Node pos="r" depth="2" NCoef="0" IVar="-1" Cut="0.0000000000000000e+00" cType="1" res="4.4815734028816223e-02" rms="4.3243688344955444e-01" purity="7.4153161048889160e-01" nType="-99"/>
        </Node>
      </Node>
    </BinaryTree>
    <BinaryTree type="DecisionTree" boostWeight="1.0000000000000000e+00" itree="5">
      <Node pos="s" depth="0" NCoef="0" IVar="3" Cut="2.0206781005859375e+02" cType="1" res="-1.0548235150054097e-03" rms="4.4137448072433472e-01" purity="4.9920985102653503e-01" nType="0">
        <Node pos="l" depth="1" NCoef="0" IVar="1" Cut="1.1070000648498535e+01" cType="1" res="1.5495771169662476e-01" rms="4.0774255990982056e-01" purity="7.0956927537918091e-01" nType="0">
          <Node pos="l" depth="2" NCoef="0" IVar="-1" Cut="0.0000000000000000e+00" cType="1" res="-3.2874803990125656e-02" rms="4.1715359687805176e-01" purity="2.8941211104393005e-01" nType="-99"/>
          <Node pos="r" depth="2" NCoef="0" IVar="-1" Cut="0.0000000000000000e+00" cType="1" res="4.9431264400482178e-02" rms="3.6861008405685425e-01" purity="8.0934464931488037e-01" nType="-99"/>
        </Node>
        <Node pos="r" depth="1" NCoef="0" IVar="4" Cut="6.9258201122283936e-01" cType="1" res="-1.7259199917316437e-01" rms="4.1233924031257629e-01" purity="2.6791772246360779e-01" nType="0">
          <Node pos="l" depth="2" NCoef="0" IVar="-1" Cut="0.0000000000000000e+00" cType="1" res="-5.4238684475421906e-02" rms="3.4883490204811096e-01" purity="1.5241165459156036e-01" nType="-99"/>
          <Node pos="r" depth="2" NCoef="0" IVar="-1" Cut="0.0000000000000000e+00" cType="1" res="2.7281325310468674e-02" rms="4.6257463097572327e-01" purity="6.6586017608642578e-01" nType="-99"/>
        </Node>
      </Node>
    </BinaryTree>
    <BinaryTree type="DecisionTree" boostWeight="1.0000000000000000e+00" itree="6">
      <Node pos="s" depth="0" NCoef="0" IVar="3" Cut="2.2070091247558594e+02" cType="1" res="2.5958690457628109e-05" rms="4.3059355020523071e-01" purity="5.0072807073593140e-01" nType="0">
        <Node pos="l" depth="1" NCoef="0" IVar="1" Cut="1.1674285888671875e+01" cType="1" res="8.7993539869785309e-02" rms="4.2089915275573730e-01" purity="6.1558526754379272e-01" nType="0">
          <Node pos="l" depth="2" NCoef="0" IVar="-1" Cut="0.0000000000000000e+00" cType="1" res="-1.9123647361993790e-02" rms="4.2443227767944336e-01" purity="3.8587895035743713e-01" nType="-99"/>
          <Node pos="r" depth="2" NCoef="0" IVar="-1" Cut="0.0000000000000000e+00" cType="1" res="4.0753468871116638e-02" rms="3.8438093662261963e-01" purity="7.4595636129379272e-01" nType="-99"/>
        </Node>
        <Node pos="r" depth="1" NCoef="0" IVar="4" Cut="7.2271698713302612e-01" cType="1" res="-2.0284283161163330e-01" rms="3.8137382268905640e-01" purity="2.3584713041782379e-01" nType="0">
          <Node pos="l" depth="2" NCoef="0" IVar="-1" Cut="0.0000000000000000e+00" cType="1" res="-6.1572968959808350e-02" rms="3.0358517169952393e-01" purity="1.1840011924505234e-01" nType="-99"/>
          <Node pos="r" depth="2" NCoef="0" IVar="-1" Cut="0.0000000000000000e+00" cType="1" res="4.1500855237245560e-02" rms="4.2258846759796143e-01" purity="7.5805896520614624e-01" nType="-99"/>
        </Node>
      </Node>
    </BinaryTree>
    <BinaryTree type="DecisionTree" boostWeight="1.0000000000000000e+00" itree="7">
      <Node pos="s" depth="0" NCoef="0" IVar="3" Cut="1.9036109924316406e+02" cType="1" res="-7.3078395798802376e-03" rms="4.2129307985305786e-01" purity="4.9225702881813049e-01" nType="0">
        <Node pos="l" depth="1" NCoef="0" IVar="1" Cut="1.1450951576232910e+01" cType="1" res="1.5115027129650116e-01" rms="3.7452998757362366e-01" purity="7.7179908752441406e-01" nType="0">
          <Node pos="l" depth="2" NCoef="0" IVar="-1" Cut="0.0000000000000000e+00" cType="1" res="-6.9070649333298206e-03" rms="4.5061996579170227e-01" purity="4.8006778955459595e-01" nType="-99"/>
          <Node pos="r" depth="2" NCoef="0" IVar="-1" Cut="0.0000000000000000e+00" cType="1" res="5.0531983375549316e-02" rms="3.1465512514114380e-01" purity="8.8216108083724976e-01" nType="-99"/>
        </Node>
        <Node pos="r" depth="1" NCoef="0" IVar="4" Cut="5.7721209526062012e-01" cType="1" res="-1.1389595270156860e-01" rms="4.1745677590370178e-01" purity="3.0422070622444153e-01" nType="0">
          <Node pos="l" depth="2" NCoef="0" IVar="-1" Cut="0.0000000000000000e+00" cType="1" res="-6.2475908547639847e-02" rms="2.6960247755050659e-01" purity="8.7059274315834045e-02" nType="-99"/>
          <Node pos="r" depth="2" NCoef="0" IVar="-1" Cut="0.0000000000000000e+00" cType="1" res="-2.9295419808477163e-03" rms="4.5105734467506409e-01" purity="4.2596518993377686e-01" nType="-99"/>
        </Node>
      </Node>
    </BinaryTree>
    <BinaryTree type="DecisionTree" boostWeight="1.0000000000000000e+00" itree="8">
      <Node pos="s" depth="0" NCoef="0" IVar="3" Cut="2.0917445373535156e+02" cType="1" res="-2.4614506401121616e-03" rms="4.1315633058547974e-01" purity="4.9531674385070801e-01" nType="0">
        <Node pos="l" depth="1" NCoef="0" IVar="1" Cut="1.0358095169067383e+01" cType="1" res="1.0555351525545120e-01" rms="4.0102696418762207e-01" purity="6.6646343469619751e-01" nType="0">
          <Node pos="l" depth="2" NCoef="0" IVar="-1" Cut="0.0000000000000000e+00" cType="1" res="-5.8855812996625900e-02" rms="2.7942505478858948e-01" purity="8.9062720537185669e-02" nType="-99"/>
          <Node pos="r" depth="2" NCoef="0" IVar="-1" Cut="0.0000000000000000e+00" cType="1" res="3.3001203089952469e-02" rms="3.9072504639625549e-01" purity="7.3035550117492676e-01" nType="-99"/>
        </Node>
        <Node pos="r" depth="1" NCoef="0" IVar="4" Cut="7.0142585039138794e-01" cType="1" res="-1.5963214635848999e-01" rms="3.7866663932800293e-01" purity="2.4628421664237976e-01" nType="0">
          <Node pos="l" depth="2" NCoef="0" IVar="-1" Cut="0.0000000000000000e+00" cType="1" res="-5.1599714905023575e-02" rms="3.1428167223930359e-01" purity="1.2892627716064453e-01" nType="-99"/>
          <Node pos="r" depth="2" NCoef="0" IVar="-1" Cut="0.0000000000000000e+00" cType="1" res="2.5846997275948524e-02" rms="4.5173037052154541e-01" purity="6.8064993619918823e-01" nType="-99"/>
        </Node>
      </Node>
    </BinaryTree>
    <BinaryTree type="DecisionTree" boostWeight="1.0000000000000000e+00" itree="9">
      <Node pos="s" depth="0" NCoef="0" IVar="1" Cut="1.1486666679382324e+01" cType="1" res="-3.5973386839032173e-03" rms="4.0715622901916504e-01" purity="4.9618089199066162e-01" nType="0">
        <Node pos="l" depth="1" NCoef="0" IVar="3" Cut="1.6141523742675781e+02" cType="1" res="-1.6035805642604828e-01" rms="3.7152582406997681e-01" purity="2.5072711706161499e-01" nType="0">
          <Node pos="l" depth="2" NCoef="0" IVar="-1" Cut="0.0000000000000000e+00" cType="1" res="3.3703953027725220e-02" rms="4.0640038251876831e-01" purity="7.2394108772277832e-01" nType="-99"/>
          <Node pos="r" depth="2" NCoef="0" IVar="-1" Cut="0.0000000000000000e+00" cType="1" res="-4.6921052038669586e-02" rms="3.4031829237937927e-01" purity="1.7611926794052124e-01" nType="-99"/>
        </Node>
        <Node pos="r" depth="1" NCoef="0" IVar="3" Cut="1.9960820007324219e+02" cType="1" res="6.8351693451404572e-02" rms="4.0256038308143616e-01" purity="6.0883766412734985e-01" nType="0">
          <Node pos="l" depth="2" NCoef="0" IVar="-1" Cut="0.0000000000000000e+00" cType="1" res="4.2091619223356247e-02" rms="3.4665086865425110e-01" purity="8.3520156145095825e-01" nType="-99"/>
          <Node pos="r" depth="2" NCoef="0" IVar="-1" Cut="0.0000000000000000e+00" cType="1" res="-1.0965952649712563e-02" rms="4.2377543449401855e-01" purity="3.6515685915946960e-01" nType="-99"/>
        </Node>
      </Node>
    </BinaryTree>
    <BinaryTree type="DecisionTree" boostWeight="1.0000000000000000e+00" itree="10">
      <Node pos="s" depth="0" NCoef="0" IVar="3" Cut="2.2070091247558594e+02" cType="1" res="8.4578501991927624e-04" rms="4.0024334192276001e-01" purity="5.0083631277084351e-01" nType="0">
        <Node pos="l" depth="1" NCoef="0" IVar="4" Cut="5.7718479633331299e-01" cType="1" res="6.4616642892360687e-02" rms="3.9902204275131226e-01" purity="6.1161530017852783e-01" nType="0">
          <Node pos="l" depth="2" NCoef="0" IVar="-1" Cut="0.0000000000000000e+00" cType="1" res="-3.8509047590196133e-03" rms="3.8566914200782776e-01" purity="5.4111331701278687e-01" nType="-99"/>
          <Node pos="r" depth="2" NCoef="0" IVar="-1" Cut="0.0000000000000000e+00" cType="1" res="5.3336091339588165e-02" rms="3.6905965209007263e-01" purity="7.6640874147415161e-01" nType="-99"/>
        </Node>
        <Node pos="r" depth="1" NCoef="0" IVar="4" Cut="7.1754360198974609e-01" cType="1" res="-1.5198916196823120e-01" rms="3.5976278781890869e-01" purity="2.3534046113491058e-01" nType="0">
          <Node pos="l" depth="2" NCoef="0" IVar="-1" Cut="0.0000000000000000e+00" cType="1" res="-5.2849300205707550e-02" rms="2.8975751996040344e-01" purity="1.0888978838920593e-01" nType="-99"/>
          <Node pos="r" depth="2" NCoef="0" IVar="-1" Cut="0.0000000000000000e+00" cType="1" res="3.7760909646749496e-02" rms="4.1965129971504211e-01" purity="7.5630193948745728e-01" nType="-99"/>
        </Node>
      </Node>
    </BinaryTree>
    <BinaryTree type="DecisionTree" boostWeight="1.0000000000000000e+00" itree="11">
      <Node pos="s" depth="0" NCoef="0" IVar="3" Cut="2.0206781005859375e+02" cType="1" res="-1.0816247668117285e-03" rms="3.9213660359382629e-01" purity="4.9711978435516357e-01" nType="0">
        <Node pos="l" depth="1" NCoef="0" IVar="1" Cut="1.1019999504089355e+01" cType="1" res="1.0213496536016464e-01" rms="3.7817704677581787e-01" purity="7.0973408222198486e-01" nType="0">
          <Node pos="l" depth="2" NCoef="0" IVar="-1" Cut="0.0000000000000000e+00" cType="1" res="-2.6608074083924294e-02" rms="3.9927336573600769e-01" purity="2.7193778753280640e-01" nType="-99"/>
          <Node pos="r" depth="2" NCoef="0" IVar="-1" Cut="0.0000000000000000e+00" cType="1" res="3.6306165158748627e-02" rms="3.5406383872032166e-01" purity="8.0982035398483276e-01" nType="-99"/>
        </Node>
        <Node pos="r" depth="1" NCoef="0" IVar="4" Cut="6.5584468841552734e-01" cType="1" res="-1.1409012228250504e-01" rms="3.7564510107040405e-01" purity="2.6433536410331726e-01" nType="0">
          <Node pos="l" depth="2" NCoef="0" IVar="-1" Cut="0.0000000000000000e+00" cType="1" res="-4.9009747803211212e-02" rms="2.8492316603660583e-01" purity="1.0641688108444214e-01" nType="-99"/>
          <Node pos="r" depth="2" NCoef="0" IVar="-1" Cut="0.0000000000000000e+00" cType="1" res="9.2800827696919441e-03" rms="4.4834458827972412e-01" purity="5.2783650159835815e-01" nType="-99"/>
        </Node>
      </Node>
    </BinaryTree>
    <BinaryTree type="DecisionTree" boostWeight="1.0000000000000000e+00" itree="12">
      <Node pos="s" depth="0" NCoef="0" IVar="1" Cut="1.0622857093811035e+01" cType="1" res="2.0000485237687826e-03" rms="3.8466900587081909e-01" purity="5.0092536211013794e-01" nType="0">
        <Node pos="l" depth="1" NCoef="0" IVar="1" Cut="9.7200002670288086e+00" cType="1" res="-2.2907315194606781e-01" rms="2.7304720878601074e-01" purity="8.7450049817562103e-02" nType="0">
          <Node pos="l" depth="2" NCoef="0" IVar="-1" Cut="0.0000000000000000e+00" cType="1" res="-6.7396774888038635e-02" rms="1.8254253268241882e-01" purity="3.1374182552099228e-02" nType="-99"/>
          <Node pos="r" depth="2" NCoef="0" IVar="-1" Cut="0.0000000000000000e+00" cType="1" res="-3.9260208606719971e-02" rms="3.3956664800643921e-01" purity="1.5270584821701050e-01" nType="-99"/>
        </Node>
        <Node pos="r" depth="1" NCoef="0" IVar="3" Cut="2.0918640136718750e+02" cType="1" res="4.2157139629125595e-02" rms="3.8708776235580444e-01" purity="5.7278120517730713e-01" nType="0">
          <Node pos="l" depth="2" NCoef="0" IVar="-1" Cut="0.0000000000000000e+00" cType="1" res="2.8785863891243935e-02" rms="3.7236049771308899e-01" purity="7.5207138061523438e-01" nType="-99"/>
          <Node pos="r" depth="2" NCoef="0" IVar="-1" Cut="0.0000000000000000e+00" cType="1" res="-1.8971282988786697e-02" rms="3.7703692913055420e-01" purity="2.8926613926887512e-01" nType="-99"/>
        </Node>
      </Node>
    </BinaryTree>
    <BinaryTree type="DecisionTree" boostWeight="1.0000000000000000e+00" itree="13">
      <Node pos="s" depth="0" NCoef="0" IVar="1" Cut="1.1820000648498535e+01" cType="1" res="-4.9033313989639282e-03" rms="3.8222798705101013e-01" purity="4.9173191189765930e-01" nType="0">
        <Node pos="l" depth="1" NCoef="0" IVar="3" Cut="1.5254808044433594e+02" cType="1" res="-1.0855840146541595e-01" rms="3.7083077430725098e-01" purity="3.1083291769027710e-01" nType="0">
          <Node pos="l" depth="2" NCoef="0" IVar="-1" Cut="0.0000000000000000e+00" cType="1" res="4.3541394174098969e-02" rms="3.4493881464004517e-01" purity="8.2788223028182983e-01" nType="-99"/>
          <Node pos="r" depth="2" NCoef="0" IVar="-1" Cut="0.0000000000000000e+00" cType="1" res="-3.3709667623043060e-02" rms="3.5944586992263794e-01" purity="2.5280424952507019e-01" nType="-99"/>
        </Node>
        <Node pos="r" depth="1" NCoef="0" IVar="3" Cut="2.1876670837402344e+02" cType="1" res="7.3358595371246338e-02" rms="3.7194252014160156e-01" purity="6.2831467390060425e-01" nType="0">
          <Node pos="l" depth="2" NCoef="0" IVar="-1" Cut="0.0000000000000000e+00" cType="1" res="3.2419476658105850e-02" rms="3.5172387957572937e-01" purity="7.6438659429550171e-01" nType="-99"/>
          <Node pos="r" depth="2" NCoef="0" IVar="-1" Cut="0.0000000000000000e+00" cType="1" res="-1.4189121313393116e-02" rms="3.7986579537391663e-01" purity="3.2554998993873596e-01" nType="-99"/>
        </Node>
      </Node>
    </BinaryTree>
    <BinaryTree type="DecisionTree" boostWeight="1.0000000000000000e+00" itree="14">
      <Node pos="s" depth="0" NCoef="0" IVar="0" Cut="1.7312856674194336e+01" cType="1" res="-2.1768402075394988e-04" rms="3.7907999753952026e-01" purity="4.9947196245193481e-01" nType="0">
        <Node pos="l" depth="1" NCoef="0" IVar="-1" Cut="0.0000000000000000e+00" cType="1" res="-7.2687841951847076e-02" rms="2.6058623194694519e-01" purity="8.8061623275279999e-02" nType="-99"/>
        <Node pos="r" depth="1" NCoef="0" IVar="3" Cut="2.1863249206542969e+02" cType="1" res="2.3946668952703476e-02" rms="3.7641954421997070e-01" purity="5.3191846609115601e-01" nType="0">
          <Node pos="l" depth="2" NCoef="0" IVar="-1" Cut="0.0000000000000000e+00" cType="1" res="1.8978109583258629e-02" rms="3.7329211831092834e-01" purity="6.5974771976470947e-01" nType="-99"/>
          <Node pos="r" depth="2" NCoef="0" IVar="-1" Cut="0.0000000000000000e+00" cType="1" res="-2.2614136338233948e-02" rms="3.5546371340751648e-01" purity="2.5051090121269226e-01" nType="-99"/>
        </Node>
      </Node>
    </BinaryTree>
    <BinaryTree type="DecisionTree" boostWeight="1.0000000000000000e+00" itree="15">
      <Node pos="s" depth="0" NCoef="0" IVar="1" Cut="1.1380000114440918e+01" cType="1" res="9.8934501875191927e-04" rms="3.7827923893928528e-01" purity="5.0167125463485718e-01" nType="0">
        <Node pos="l" depth="1" NCoef="0" IVar="3" Cut="1.6096986389160156e+02" cType="1" res="-1.2734825909137726e-01" rms="3.4571456909179688e-01" purity="2.2860252857208252e-01" nType="0">
          <Node pos="l" depth="2" NCoef="0" IVar="-1" Cut="0.0000000000000000e+00" cType="1" res="2.6466414332389832e-02" rms="4.0819138288497925e-01" purity="6.9108688831329346e-01" nType="-99"/>
          <Node pos="r" depth="2" NCoef="0" IVar="-1" Cut="0.0000000000000000e+00" cType="1" res="-4.0264923125505447e-02" rms="3.2087260484695435e-01" purity="1.6176119446754456e-01" nType="-99"/>
        </Node>
        <Node pos="r" depth="1" NCoef="0" IVar="4" Cut="5.9610778093338013e-01" cType="1" res="5.1651872694492340e-02" rms="3.7859433889389038e-01" purity="6.0946780443191528e-01" nType="0">
          <Node pos="l" depth="2" NCoef="0" IVar="-1" Cut="0.0000000000000000e+00" cType="1" res="-3.3434396609663963e-03" rms="3.5930851101875305e-01" purity="5.8276736736297607e-01" nType="-99"/>
          <Node pos="r" depth="2" NCoef="0" IVar="-1" Cut="0.0000000000000000e+00" cType="1" res="3.2426111400127411e-02" rms="3.8622882962226868e-01" purity="6.4708095788955688e-01" nType="-99"/>
        </Node>
      </Node>
    </BinaryTree>
    <BinaryTree type="DecisionTree" boostWeight="1.0000000000000000e+00" itree="16">
      <Node pos="s" depth="0" NCoef="0" IVar="0" Cut="1.7206190109252930e+01" cType="1" res="-1.8363652052357793e-03" rms="3.7483522295951843e-01" purity="4.9834984540939331e-01" nType="0">
        <Node pos="l" depth="1" NCoef="0" IVar="-1" Cut="0.0000000000000000e+00" cType="1" res="-7.0839494466781616e-02" rms="2.4889717996120453e-01" purity="7.5252190232276917e-02" nType="-99"/>
        <Node pos="r" depth="1" NCoef="0" IVar="3" Cut="1.8443440246582031e+02" cType="1" res="1.8918927758932114e-02" rms="3.7403789162635803e-01" purity="5.2923744916915894e-01" nType="0">
          <Node pos="l" depth="2" NCoef="0" IVar="-1" Cut="0.0000000000000000e+00" cType="1" res="3.0369956046342850e-02" rms="3.2273110747337341e-01" purity="8.3049190044403076e-01" nType="-99"/>
          <Node pos="r" depth="2" NCoef="0" IVar="-1" Cut="0.0000000000000000e+00" cType="1" res="-7.6649929396808147e-03" rms="3.9092940092086792e-01" purity="3.5754206776618958e-01" nType="-99"/>
        </Node>
      </Node>
    </BinaryTree>
    <BinaryTree type="DecisionTree" boostWeight="1.0000000000000000e+00" itree="17">
      <Node pos="s" depth="0" NCoef="0" IVar="1" Cut="1.1556666374206543e+01" cType="1" res="5.7739531621336937e-04" rms="3.7244030833244324e-01" purity="5.0077456235885620e-01" nType="0">
        <Node pos="l" depth="1" NCoef="0" IVar="3" Cut="1.6096986389160156e+02" cType="1" res="-9.7459480166435242e-02" rms="3.5468429327011108e-01" purity="2.7091330289840698e-01" nType="0">
          <Node pos="l" depth="2" NCoef="0" IVar="-1" Cut="0.0000000000000000e+00" cType="1" res="2.5231666862964630e-02" rms="3.8853031396865845e-01" purity="7.4135226011276245e-01" nType="-99"/>
          <Node pos="r" depth="2" NCoef="0" IVar="-1" Cut="0.0000000000000000e+00" cType="1" res="-3.3420927822589874e-02" rms="3.3718940615653992e-01" purity="1.9261480867862701e-01" nType="-99"/>
        </Node>
        <Node pos="r" depth="1" NCoef="0" IVar="4" Cut="6.7164009809494019e-01" cType="1" res="5.0115685909986496e-02" rms="3.7138259410858154e-01" purity="6.1692410707473755e-01" nType="0">
          <Node pos="l" depth="2" NCoef="0" IVar="-1" Cut="0.0000000000000000e+00" cType="1" res="3.0504781752824783e-03" rms="3.6105275154113770e-01" purity="5.8099853992462158e-01" nType="-99"/>
          <Node pos="r" depth="2" NCoef="0" IVar="-1" Cut="0.0000000000000000e+00" cType="1" res="4.6526506543159485e-02" rms="3.6985775828361511e-01" purity="7.7426850795745850e-01" nType="-99"/>
        </Node>
      </Node>
    </BinaryTree>
    <BinaryTree type="DecisionTree" boostWeight="1.0000000000000000e+00" itree="18">
      <Node pos="s" depth="0" NCoef="0" IVar="3" Cut="1.9699693298339844e+02" cType="1" res="1.3601765967905521e-03" rms="3.7032365798950195e-01" purity="5.0298285484313965e-01" nType="0">
        <Node pos="l" depth="1" NCoef="0" IVar="4" Cut="5.0959986448287964e-01" cType="1" res="8.3397842943668365e-02" rms="3.5597640275955200e-01" purity="7.4652987718582153e-01" nType="0">
          <Node pos="l" depth="2" NCoef="0" IVar="-1" Cut="0.0000000000000000e+00" cType="1" res="2.5844406336545944e-03" rms="3.7365457415580750e-01" purity="6.8570894002914429e-01" nType="-99"/>
          <Node pos="r" depth="2" NCoef="0" IVar="-1" Cut="0.0000000000000000e+00" cType="1" res="4.2044766247272491e-02" rms="3.1754174828529358e-01" purity="8.1168448925018311e-01" nType="-99"/>
        </Node>
        <Node pos="r" depth="1" NCoef="0" IVar="4" Cut="6.0178631544113159e-01" cType="1" res="-7.1704901754856110e-02" rms="3.6754280328750610e-01" purity="2.8607296943664551e-01" nType="0">
          <Node pos="l" depth="2" NCoef="0" IVar="-1" Cut="0.0000000000000000e+00" cType="1" res="-5.3026486188173294e-02" rms="2.4853000044822693e-01" purity="8.1283047795295715e-02" nType="-99"/>
          <Node pos="r" depth="2" NCoef="0" IVar="-1" Cut="0.0000000000000000e+00" cType="1" res="6.6735590808093548e-03" rms="4.0684890747070312e-01" purity="4.3773111701011658e-01" nType="-99"/>
        </Node>
      </Node>
    </BinaryTree>
    <BinaryTree type="DecisionTree" boostWeight="1.0000000000000000e+00" itree="19">
      <Node pos="s" depth="0" NCoef="0" IVar="3" Cut="2.0294424438476562e+02" cType="1" res="-2.9628530610352755e-03" rms="3.6550185084342957e-01" purity="4.9657705426216125e-01" nType="0">
        <Node pos="l" depth="1" NCoef="0" IVar="4" Cut="5.0959986448287964e-01" cType="1" res="5.9626229107379913e-02" rms="3.6527860164642334e-01" purity="6.9976216554641724e-01" nType="0">
          <Node pos="l" depth="2" NCoef="0" IVar="-1" Cut="0.0000000000000000e+00" cType="1" res="-7.1519021876156330e-03" rms="3.7589177489280701e-01" purity="6.2150073051452637e-01" nType="-99"/>
          <Node pos="r" depth="2" NCoef="0" IVar="-1" Cut="0.0000000000000000e+00" cType="1" res="3.7104692310094833e-02" rms="3.3353266119956970e-01" purity="7.7602034807205200e-01" nType="-99"/>
        </Node>
        <Node pos="r" depth="1" NCoef="0" IVar="4" Cut="7.1370393037796021e-01" cType="1" res="-7.5141221284866333e-02" rms="3.5221078991889954e-01" purity="2.6226195693016052e-01" nType="0">
          <Node pos="l" depth="2" NCoef="0" IVar="-1" Cut="0.0000000000000000e+00" cType="1" res="-3.0917568132281303e-02" rms="3.2523170113563538e-01" purity="1.7252770066261292e-01" nType="-99"/>
          <Node pos="r" depth="2" NCoef="0" IVar="-1" Cut="0.0000000000000000e+00" cType="1" res="3.8235608488321304e-02" rms="3.8541358709335327e-01" purity="7.6429629325866699e-01" nType="-99"/>
        </Node>
      </Node>
    </BinaryTree>
    <BinaryTree type="DecisionTree" boostWeight="1.0000000000000000e+00" itree="20">
      <Node pos="s" depth="0" NCoef="0" IVar="0" Cut="1.7312856674194336e+01" cType="1" res="2.2217752411961555e-03" rms="3.6027109622955322e-01" purity="5.0064444541931152e-01" nType="0">
        <Node pos="l" depth="1" NCoef="0" IVar="-1" Cut="0.0000000000000000e+00" cType="1" res="-6.4826659858226776e-02" rms="2.6857647299766541e-01" purity="9.4367571175098419e-02" nType="-99"/>
        <Node pos="r" depth="1" NCoef="0" IVar="1" Cut="1.0463333129882812e+01" cType="1" res="2.1564852446317673e-02" rms="3.5941475629806519e-01" purity="5.3252929449081421e-01" nType="0">
          <Node pos="l" depth="2" NCoef="0" IVar="-1" Cut="0.0000000000000000e+00" cType="1" res="-4.6871747821569443e-02" rms="2.6407754421234131e-01" purity="8.5464239120483398e-02" nType="-99"/>
          <Node pos="r" depth="2" NCoef="0" IVar="-1" Cut="0.0000000000000000e+00" cType="1" res="1.1943012475967407e-02" rms="3.6246234178543091e-01" purity="5.9040915966033936e-01" nType="-99"/>
        </Node>
      </Node>
    </BinaryTree>
    <BinaryTree type="DecisionTree" boostWeight="1.0000000000000000e+00" itree="21">
      <Node pos="s" depth="0" NCoef="0" IVar="3" Cut="2.2070091247558594e+02" cType="1" res="1.1551479110494256e-03" rms="3.5796365141868591e-01" purity="4.9896308779716492e-01" nType="0">
        <Node pos="l" depth="1" NCoef="0" IVar="4" Cut="5.7718479633331299e-01" cType="1" res="4.2506884783506393e-02" rms="3.6226618289947510e-01" purity="6.1515152454376221e-01" nType="0">
          <Node pos="l" depth="2" NCoef="0" IVar="-1" Cut="0.0000000000000000e+00" cType="1" res="-6.6496781073510647e-03" rms="3.5337647795677185e-01" purity="5.4606628417968750e-01" nType="-99"/>
          <Node pos="r" depth="2" NCoef="0" IVar="-1" Cut="0.0000000000000000e+00" cType="1" res="4.6718366444110870e-02" rms="3.3775818347930908e-01" purity="7.6383119821548462e-01" nType="-99"/>
        </Node>
        <Node pos="r" depth="1" NCoef="0" IVar="4" Cut="7.2767025232315063e-01" cType="1" res="-9.4747990369796753e-02" rms="3.2831084728240967e-01" purity="2.2949829697608948e-01" nType="0">
          <Node pos="l" depth="2" NCoef="0" IVar="-1" Cut="0.0000000000000000e+00" cType="1" res="-3.9245668798685074e-02" rms="2.8954941034317017e-01" purity="1.2278896570205688e-01" nType="-99"/>
          <Node pos="r" depth="2" NCoef="0" IVar="-1" Cut="0.0000000000000000e+00" cType="1" res="3.3488299697637558e-02" rms="3.8952150940895081e-01" purity="7.6377242803573608e-01" nType="-99"/>
        </Node>
      </Node>
    </BinaryTree>
    <BinaryTree type="DecisionTree" boostWeight="1.0000000000000000e+00" itree="22">
      <Node pos="s" depth="0" NCoef="0" IVar="1" Cut="1.0484285354614258e+01" cType="1" res="2.8343978337943554e-03" rms="3.5542780160903931e-01" purity="5.0292831659317017e-01" nType="0">
        <Node pos="l" depth="1" NCoef="0" IVar="1" Cut="9.5933332443237305e+00" cType="1" res="-1.5675717592239380e-01" rms="2.4130706489086151e-01" purity="7.2330154478549957e-02" nType="0">
          <Node pos="l" depth="2" NCoef="0" IVar="-1" Cut="0.0000000000000000e+00" cType="1" res="-6.0162927955389023e-02" rms="1.5358076989650726e-01" purity="2.2734189406037331e-02" nType="-99"/>
          <Node pos="r" depth="2" NCoef="0" IVar="-1" Cut="0.0000000000000000e+00" cType="1" res="-2.7240319177508354e-02" rms="3.1632027029991150e-01" purity="1.4178320765495300e-01" nType="-99"/>
        </Node>
        <Node pos="r" depth="1" NCoef="0" IVar="0" Cut="1.7165714263916016e+01" cType="1" res="2.6521990075707436e-02" rms="3.6344915628433228e-01" purity="5.6684041023254395e-01" nType="0">
          <Node pos="l" depth="2" NCoef="0" IVar="-1" Cut="0.0000000000000000e+00" cType="1" res="-6.5063528716564178e-02" rms="2.8918811678886414e-01" purity="1.0474652051925659e-01" nType="-99"/>
          <Node pos="r" depth="2" NCoef="0" IVar="-1" Cut="0.0000000000000000e+00" cType="1" res="1.0734699666500092e-02" rms="3.6107042431831360e-01" purity="5.9196829795837402e-01" nType="-99"/>
        </Node>
      </Node>
    </BinaryTree>
    <BinaryTree type="DecisionTree" boostWeight="1.0000000000000000e+00" itree="23">
      <Node pos="s" depth="0" NCoef="0" IVar="3" Cut="2.5283058166503906e+02" cType="1" res="-7.6267321128398180e-04" rms="3.5422110557556152e-01" purity="4.9895530939102173e-01" nType="0">
        <Node pos="l" depth="1" NCoef="0" IVar="4" Cut="6.3670301437377930e-01" cType="1" res="2.0217668265104294e-02" rms="3.5384023189544678e-01" purity="5.3514099121093750e-01" nType="0">
          <Node pos="l" depth="2" NCoef="0" IVar="-1" Cut="0.0000000000000000e+00" cType="1" res="-6.4257900230586529e-03" rms="3.4235957264900208e-01" purity="4.8640975356101990e-01" nType="-99"/>
          <Node pos="r" depth="2" NCoef="0" IVar="-1" Cut="0.0000000000000000e+00" cType="1" res="4.7825381159782410e-02" rms="3.4482917189598083e-01" purity="7.3105156421661377e-01" nType="-99"/>
        </Node>
        <Node pos="r" depth="1" NCoef="0" IVar="4" Cut="7.2189700603485107e-01" cType="1" res="-1.6146531701087952e-01" rms="3.1359416246414185e-01" purity="2.2178485989570618e-01" nType="0">
          <Node pos="l" depth="2" NCoef="0" IVar="-1" Cut="0.0000000000000000e+00" cType="1" res="-6.5159797668457031e-02" rms="1.8156935274600983e-01" purity="3.3545333892107010e-02" nType="-99"/>
          <Node pos="r" depth="2" NCoef="0" IVar="-1" Cut="0.0000000000000000e+00" cType="1" res="1.3985058292746544e-02" rms="4.2924061417579651e-01" purity="6.7702394723892212e-01" nType="-99"/>
        </Node>
      </Node>
    </BinaryTree>
    <BinaryTree type="DecisionTree" boostWeight="1.0000000000000000e+00" itree="24">
      <Node pos="s" depth="0" NCoef="0" IVar="3" Cut="1.9221719360351562e+02" cType="1" res="-3.1920445617288351e-03" rms="3.5061621665954590e-01" purity="4.9920588731765747e-01" nType="0">
        <Node pos="l" depth="1" NCoef="0" IVar="2" Cut="5.6127250671386719e+01" cType="1" res="6.7919395864009857e-02" rms="3.4265497326850891e-01" purity="7.6848304271697998e-01" nType="0">
          <Node pos="l" depth="2" NCoef="0" IVar="-1" Cut="0.0000000000000000e+00" cType="1" res="1.2602870352566242e-02" rms="3.4970736503601074e-01" purity="7.4365830421447754e-01" nType="-99"/>
          <Node pos="r" depth="2" NCoef="0" IVar="-1" Cut="0.0000000000000000e+00" cType="1" res="5.6412763893604279e-02" rms="2.5389370322227478e-01" purity="9.1771495342254639e-01" nType="-99"/>
        </Node>
        <Node pos="r" depth="1" NCoef="0" IVar="4" Cut="5.3382301330566406e-01" cType="1" res="-5.5507555603981018e-02" rms="3.4718155860900879e-01" purity="3.0110317468643188e-01" nType="0">
          <Node pos="l" depth="2" NCoef="0" IVar="-1" Cut="0.0000000000000000e+00" cType="1" res="-6.7475967109203339e-02" rms="1.7319010198116302e-01" purity="2.8851794078946114e-02" nType="-99"/>
          <Node pos="r" depth="2" NCoef="0" IVar="-1" Cut="0.0000000000000000e+00" cType="1" res="5.5487122153863311e-04" rms="3.6208957433700562e-01" purity="3.7823197245597839e-01" nType="-99"/>
        </Node>
      </Node>
    </BinaryTree>
    <BinaryTree type="DecisionTree" boostWeight="1.0000000000000000e+00" itree="25">
      <Node pos="s" depth="0" NCoef="0" IVar="0" Cut="1.7312856674194336e+01" cType="1" res="-1.1866508284583688e-03" rms="3.4751990437507629e-01" purity="4.9933511018753052e-01" nType="0">
        <Node pos="l" depth="1" NCoef="0" IVar="-1" Cut="0.0000000000000000e+00" cType="1" res="-5.7803157716989517e-02" rms="2.6297596096992493e-01" purity="9.6461370587348938e-02" nType="-99"/>
        <Node pos="r" depth="1" NCoef="0" IVar="3" Cut="1.8662449645996094e+02" cType="1" res="1.5428625047206879e-02" rms="3.4842553734779358e-01" purity="5.3254812955856323e-01" nType="0">
          <Node pos="l" depth="2" NCoef="0" IVar="-1" Cut="0.0000000000000000e+00" cType="1" res="2.5961775332689285e-02" rms="3.1974807381629944e-01" purity="8.2847940921783447e-01" nType="-99"/>
          <Node pos="r" depth="2" NCoef="0" IVar="-1" Cut="0.0000000000000000e+00" cType="1" res="-7.1491268463432789e-03" rms="3.5800305008888245e-01" purity="3.5042938590049744e-01" nType="-99"/>
        </Node>
      </Node>
    </BinaryTree>
    <BinaryTree type="DecisionTree" boostWeight="1.0000000000000000e+00" itree="26">
      <Node pos="s" depth="0" NCoef="0" IVar="1" Cut="1.1966666221618652e+01" cType="1" res="-8.8579620933160186e-04" rms="3.4338805079460144e-01" purity="5.0011742115020752e-01" nType="0">
        <Node pos="l" depth="1" NCoef="0" IVar="3" Cut="1.5254808044433594e+02" cType="1" res="-6.3287630677223206e-02" rms="3.4306022524833679e-01" purity="3.3961445093154907e-01" nType="0">
          <Node pos="l" depth="2" NCoef="0" IVar="-1" Cut="0.0000000000000000e+00" cType="1" res="3.3086147159337997e-02" rms="3.2492515444755554e-01" purity="8.3313471078872681e-01" nType="-99"/>
          <Node pos="r" depth="2" NCoef="0" IVar="-1" Cut="0.0000000000000000e+00" cType="1" res="-2.3615330457687378e-02" rms="3.3872741460800171e-01" purity="2.8147238492965698e-01" nType="-99"/>
        </Node>
        <Node pos="r" depth="1" NCoef="0" IVar="3" Cut="2.3949549865722656e+02" cType="1" res="5.5745650082826614e-02" rms="3.3373424410820007e-01" purity="6.4577835798263550e-01" nType="0">
          <Node pos="l" depth="2" NCoef="0" IVar="-1" Cut="0.0000000000000000e+00" cType="1" res="2.3333400487899780e-02" rms="3.2539546489715576e-01" purity="7.1051734685897827e-01" nType="-99"/>
          <Node pos="r" depth="2" NCoef="0" IVar="-1" Cut="0.0000000000000000e+00" cType="1" res="-2.1797504276037216e-02" rms="3.3654245734214783e-01" purity="3.2187318801879883e-01" nType="-99"/>
        </Node>
      </Node>
    </BinaryTree>
    <BinaryTree type="DecisionTree" boostWeight="1.0000000000000000e+00" itree="27">
      <Node pos="s" depth="0" NCoef="0" IVar="1" Cut="1.2324285507202148e+01" cType="1" res="2.3354898439720273e-04" rms="3.4337103366851807e-01" purity="5.0057899951934814e-01" nType="0">
        <Node pos="l" depth="1" NCoef="0" IVar="0" Cut="1.8761426925659180e+01" cType="1" res="-4.4073890894651413e-02" rms="3.4983971714973450e-01" purity="3.9671519398689270e-01" nType="0">
          <Node pos="l" depth="2" NCoef="0" IVar="-1" Cut="0.0000000000000000e+00" cType="1" res="-2.7582135051488876e-02" rms="3.3470371365547180e-01" purity="3.2385456562042236e-01" nType="-99"/>
          <Node pos="r" depth="2" NCoef="0" IVar="-1" Cut="0.0000000000000000e+00" cType="1" res="1.4263826422393322e-02" rms="3.5551187396049500e-01" purity="5.2591294050216675e-01" nType="-99"/>
        </Node>
        <Node pos="r" depth="1" NCoef="0" IVar="3" Cut="2.3660191345214844e+02" cType="1" res="6.8480022251605988e-02" rms="3.2142701745033264e-01" purity="6.6055983304977417e-01" nType="0">
          <Node pos="l" depth="2" NCoef="0" IVar="-1" Cut="0.0000000000000000e+00" cType="1" res="2.8530862182378769e-02" rms="3.0876451730728149e-01" purity="7.4049913883209229e-01" nType="-99"/>
          <Node pos="r" depth="2" NCoef="0" IVar="-1" Cut="0.0000000000000000e+00" cType="1" res="-1.7891271039843559e-02" rms="3.3352211117744446e-01" purity="3.2962641119956970e-01" nType="-99"/>
        </Node>
      </Node>
    </BinaryTree>
    <BinaryTree type="DecisionTree" boostWeight="1.0000000000000000e+00" itree="28">
      <Node pos="s" depth="0" NCoef="0" IVar="1" Cut="1.0522856712341309e+01" cType="1" res="-3.8228468038141727e-03" rms="3.3988675475120544e-01" purity="4.9408891797065735e-01" nType="0">
        <Node pos="l" depth="1" NCoef="0" IVar="1" Cut="9.6380958557128906e+00" cType="1" res="-1.3028001785278320e-01" rms="2.4398289620876312e-01" purity="7.6885826885700226e-02" nType="0">
          <Node pos="l" depth="2" NCoef="0" IVar="-1" Cut="0.0000000000000000e+00" cType="1" res="-5.6598488241434097e-02" rms="1.6360285878181458e-01" purity="2.5767864659428596e-02" nType="-99"/>
          <Node pos="r" depth="2" NCoef="0" IVar="-1" Cut="0.0000000000000000e+00" cType="1" res="-2.4062952026724815e-02" rms="3.1269890069961548e-01" purity="1.4396093785762787e-01" nType="-99"/>
        </Node>
        <Node pos="r" depth="1" NCoef="0" IVar="4" Cut="5.5823469161987305e-01" cType="1" res="1.5260763466358185e-02" rms="3.4813186526298523e-01" purity="5.5704891681671143e-01" nType="0">
          <Node pos="l" depth="2" NCoef="0" IVar="-1" Cut="0.0000000000000000e+00" cType="1" res="-1.2807510793209076e-02" rms="3.3572834730148315e-01" purity="5.4125797748565674e-01" nType="-99"/>
          <Node pos="r" depth="2" NCoef="0" IVar="-1" Cut="0.0000000000000000e+00" cType="1" res="1.8424591049551964e-02" rms="3.5006520152091980e-01" purity="5.7137280702590942e-01" nType="-99"/>
        </Node>
      </Node>
    </BinaryTree>
    <BinaryTree type="DecisionTree" boostWeight="1.0000000000000000e+00" itree="29">
      <Node pos="s" depth="0" NCoef="0" IVar="1" Cut="1.0072856903076172e+01" cType="1" res="-2.0709676391561516e-05" rms="3.3927586674690247e-01" purity="4.9866849184036255e-01" nType="0">
        <Node pos="l" depth="1" NCoef="0" IVar="5" Cut="4.6004609375000000e+03" cType="1" res="-1.4382931590080261e-01" rms="1.8276090919971466e-01" purity="3.7615500390529633e-02" nType="0">
          <Node pos="l" depth="2" NCoef="0" IVar="-1" Cut="0.0000000000000000e+00" cType="1" res="-5.3371589630842209e-02" rms="1.8460287153720856e-01" purity="3.7151399999856949e-02" nType="-99"/>
          <Node pos="r" depth="2" NCoef="0" IVar="-1" Cut="0.0000000000000000e+00" cType="1" res="-4.7574114054441452e-02" rms="1.7907623946666718e-01" purity="3.8067024201154709e-02" nType="-99"/>
        </Node>
        <Node pos="r" depth="1" NCoef="0" IVar="4" Cut="6.3484072685241699e-01" cType="1" res="1.6084613278508186e-02" rms="3.4883102774620056e-01" purity="5.5030244588851929e-01" nType="0">
          <Node pos="l" depth="2" NCoef="0" IVar="-1" Cut="0.0000000000000000e+00" cType="1" res="-4.4617517851293087e-03" rms="3.3804035186767578e-01" purity="5.2010637521743774e-01" nType="-99"/>
          <Node pos="r" depth="2" NCoef="0" IVar="-1" Cut="0.0000000000000000e+00" cType="1" res="2.5288855656981468e-02" rms="3.6274823546409607e-01" purity="6.3215500116348267e-01" nType="-99"/>
        </Node>
      </Node>
    </BinaryTree>
    <BinaryTree type="DecisionTree" boostWeight="1.0000000000000000e+00" itree="30">
      <Node pos="s" depth="0" NCoef="0" IVar="0" Cut="1.7327617645263672e+01" cType="1" res="1.4742739731445909e-03" rms="3.3718764781951904e-01" purity="5.0197207927703857e-01" nType="0">
        <Node pos="l" depth="1" NCoef="0" IVar="-1" Cut="0.0000000000000000e+00" cType="1" res="-5.7908158749341965e-02" rms="2.5692483782768250e-01" purity="8.4882751107215881e-02" nType="-99"/>
        <Node pos="r" depth="1" NCoef="0" IVar="3" Cut="2.2422991943359375e+02" cType="1" res="1.6201419755816460e-02" rms="3.3850729465484619e-01" purity="5.3536415100097656e-01" nType="0">
          <Node pos="l" depth="2" NCoef="0" IVar="-1" Cut="0.0000000000000000e+00" cType="1" res="1.3200280256569386e-02" rms="3.4218451380729675e-01" purity="6.3498419523239136e-01" nType="-99"/>
          <Node pos="r" depth="2" NCoef="0" IVar="-1" Cut="0.0000000000000000e+00" cType="1" res="-1.9806124269962311e-02" rms="3.1118157505989075e-01" purity="2.5044164061546326e-01" nType="-99"/>
        </Node>
      </Node>
    </BinaryTree>
    <BinaryTree type="DecisionTree" boostWeight="1.0000000000000000e+00" itree="31">
      <Node pos="s" depth="0" NCoef="0" IVar="3" Cut="1.8443440246582031e+02" cType="1" res="2.0164148882031441e-03" rms="3.3604377508163452e-01" purity="5.0558024644851685e-01" nType="0">
        <Node pos="l" depth="1" NCoef="0" IVar="3" Cut="1.7465879821777344e+02" cType="1" res="6.5165810286998749e-02" rms="3.1297332048416138e-01" purity="8.1171339750289917e-01" nType="0">
          <Node pos="l" depth="2" NCoef="0" IVar="-1" Cut="0.0000000000000000e+00" cType="1" res="3.1188108026981354e-02" rms="2.8919360041618347e-01" purity="8.5149508714675903e-01" nType="-99"/>
          <Node pos="r" depth="2" NCoef="0" IVar="-1" Cut="0.0000000000000000e+00" cType="1" res="-1.1089080944657326e-02" rms="3.5601896047592163e-01" purity="6.9558089971542358e-01" nType="-99"/>
        </Node>
        <Node pos="r" depth="1" NCoef="0" IVar="4" Cut="5.3194111585617065e-01" cType="1" res="-3.1715888530015945e-02" rms="3.4300950169563293e-01" purity="3.4205415844917297e-01" nType="0">
          <Node pos="l" depth="2" NCoef="0" IVar="-1" Cut="0.0000000000000000e+00" cType="1" res="-6.0254976153373718e-02" rms="2.3410433530807495e-01" purity="7.2111316025257111e-02" nType="-99"/>
          <Node pos="r" depth="2" NCoef="0" IVar="-1" Cut="0.0000000000000000e+00" cType="1" res="5.7929153554141521e-03" rms="3.5021951794624329e-01" purity="4.1939920186996460e-01" nType="-99"/>
        </Node>
      </Node>
    </BinaryTree>
    <BinaryTree type="DecisionTree" boostWeight="1.0000000000000000e+00" itree="32">
      <Node pos="s" depth="0" NCoef="0" IVar="3" Cut="2.5283058166503906e+02" cType="1" res="2.6534432545304298e-03" rms="3.3198329806327820e-01" purity="5.0539392232894897e-01" nType="0">
        <Node pos="l" depth="1" NCoef="0" IVar="4" Cut="6.2934249639511108e-01" cType="1" res="2.1684994921088219e-02" rms="3.3116203546524048e-01" purity="5.4479867219924927e-01" nType="0">
          <Node pos="l" depth="2" NCoef="0" IVar="-1" Cut="0.0000000000000000e+00" cType="1" res="-5.2693816833198071e-03" rms="3.2059767842292786e-01" purity="4.9545767903327942e-01" nType="-99"/>
          <Node pos="r" depth="2" NCoef="0" IVar="-1" Cut="0.0000000000000000e+00" cType="1" res="4.2353443801403046e-02" rms="3.3023476600646973e-01" purity="7.2033333778381348e-01" nType="-99"/>
        </Node>
        <Node pos="r" depth="1" NCoef="0" IVar="4" Cut="7.2767025232315063e-01" cType="1" res="-1.3715323805809021e-01" rms="3.0332684516906738e-01" purity="2.1592475473880768e-01" nType="0">
          <Node pos="l" depth="2" NCoef="0" IVar="-1" Cut="0.0000000000000000e+00" cType="1" res="-6.0375817120075226e-02" rms="1.9902125000953674e-01" purity="4.5074161142110825e-02" nType="-99"/>
          <Node pos="r" depth="2" NCoef="0" IVar="-1" Cut="0.0000000000000000e+00" cType="1" res="2.0946467295289040e-02" rms="4.0995669364929199e-01" purity="7.0322185754776001e-01" nType="-99"/>
        </Node>
      </Node>
    </BinaryTree>
    <BinaryTree type="DecisionTree" boostWeight="1.0000000000000000e+00" itree="33">
      <Node pos="s" depth="0" NCoef="0" IVar="3" Cut="1.8797058105468750e+02" cType="1" res="-4.8495442606508732e-03" rms="3.2750964164733887e-01" purity="4.9387383460998535e-01" nType="0">
        <Node pos="l" depth="1" NCoef="0" IVar="2" Cut="5.2324417114257812e+01" cType="1" res="5.5468887090682983e-02" rms="3.1968605518341064e-01" purity="7.8824251890182495e-01" nType="0">
          <Node pos="l" depth="2" NCoef="0" IVar="-1" Cut="0.0000000000000000e+00" cType="1" res="6.7162504419684410e-03" rms="3.4096539020538330e-01" purity="7.3857522010803223e-01" nType="-99"/>
          <Node pos="r" depth="2" NCoef="0" IVar="-1" Cut="0.0000000000000000e+00" cType="1" res="4.2644925415515900e-02" rms="2.5193765759468079e-01" purity="8.9677047729492188e-01" nType="-99"/>
        </Node>
        <Node pos="r" depth="1" NCoef="0" IVar="4" Cut="5.6325215101242065e-01" cType="1" res="-4.2209636420011520e-02" rms="3.2672536373138428e-01" purity="3.1154754757881165e-01" nType="0">
          <Node pos="l" depth="2" NCoef="0" IVar="-1" Cut="0.0000000000000000e+00" cType="1" res="-5.0086762756109238e-02" rms="2.3428814113140106e-01" purity="8.1393115222454071e-02" nType="-99"/>
          <Node pos="r" depth="2" NCoef="0" IVar="-1" Cut="0.0000000000000000e+00" cType="1" res="5.0658099353313446e-03" rms="3.4673461318016052e-01" purity="4.2280200123786926e-01" nType="-99"/>
        </Node>
      </Node>
    </BinaryTree>
    <BinaryTree type="DecisionTree" boostWeight="1.0000000000000000e+00" itree="34">
      <Node pos="s" depth="0" NCoef="0" IVar="3" Cut="2.1876670837402344e+02" cType="1" res="-2.0956024527549744e-03" rms="3.2832244038581848e-01" purity="4.9701747298240662e-01" nType="0">
        <Node pos="l" depth="1" NCoef="0" IVar="4" Cut="5.4983681440353394e-01" cType="1" res="2.8989516198635101e-02" rms="3.3624693751335144e-01" purity="6.1939001083374023e-01" nType="0">
          <Node pos="l" depth="2" NCoef="0" IVar="-1" Cut="0.0000000000000000e+00" cType="1" res="-9.8874839022755623e-03" rms="3.3006179332733154e-01" purity="5.3917378187179565e-01" nType="-99"/>
          <Node pos="r" depth="2" NCoef="0" IVar="-1" Cut="0.0000000000000000e+00" cType="1" res="3.4129247069358826e-02" rms="3.2430040836334229e-01" purity="7.3682940006256104e-01" nType="-99"/>
        </Node>
        <Node pos="r" depth="1" NCoef="0" IVar="4" Cut="7.5242298841476440e-01" cType="1" res="-7.0122987031936646e-02" rms="2.9921260476112366e-01" purity="2.2921456396579742e-01" nType="0">
          <Node pos="l" depth="2" NCoef="0" IVar="-1" Cut="0.0000000000000000e+00" cType="1" res="-2.8956903144717216e-02" rms="2.8534978628158569e-01" purity="1.6858202219009399e-01" nType="-99"/>
          <Node pos="r" depth="2" NCoef="0" IVar="-1" Cut="0.0000000000000000e+00" cType="1" res="4.6800982207059860e-02" rms="2.9778188467025757e-01" purity="8.5122126340866089e-01" nType="-99"/>
        </Node>
      </Node>
    </BinaryTree>
    <BinaryTree type="DecisionTree" boostWeight="1.0000000000000000e+00" itree="35">
      <Node pos="s" depth="0" NCoef="0" IVar="3" Cut="2.2422991943359375e+02" cType="1" res="8.7118014926090837e-04" rms="3.2417207956314087e-01" purity="5.0245815515518188e-01" nType="0">
        <Node pos="l" depth="1" NCoef="0" IVar="4" Cut="5.8434003591537476e-01" cType="1" res="2.7210317552089691e-02" rms="3.3058461546897888e-01" purity="6.0038787126541138e-01" nType="0">
          <Node pos="l" depth="2" NCoef="0" IVar="-1" Cut="0.0000000000000000e+00" cType="1" res="-4.7918492928147316e-03" rms="3.2408514618873596e-01" purity="5.3133004903793335e-01" nType="-99"/>
          <Node pos="r" depth="2" NCoef="0" IVar="-1" Cut="0.0000000000000000e+00" cType="1" res="3.7120938301086426e-02" rms="3.2322701811790466e-01" purity="7.6371777057647705e-01" nType="-99"/>
        </Node>
        <Node pos="r" depth="1" NCoef="0" IVar="4" Cut="7.2259461879730225e-01" cType="1" res="-7.3515027761459351e-02" rms="2.9280915856361389e-01" purity="2.2588792443275452e-01" nType="0">
          <Node pos="l" depth="2" NCoef="0" IVar="-1" Cut="0.0000000000000000e+00" cType="1" res="-3.7659648805856705e-02" rms="2.4981562793254852e-01" purity="9.8917104303836823e-02" nType="-99"/>
          <Node pos="r" depth="2" NCoef="0" IVar="-1" Cut="0.0000000000000000e+00" cType="1" res="2.6863152161240578e-02" rms="3.7167111039161682e-01" purity="7.5807720422744751e-01" nType="-99"/>
        </Node>
      </Node>
    </BinaryTree>
    <BinaryTree type="DecisionTree" boostWeight="1.0000000000000000e+00" itree="36">
      <Node pos="s" depth="0" NCoef="0" IVar="1" Cut="1.0629524230957031e+01" cType="1" res="1.9024009816348553e-03" rms="3.2203423976898193e-01" purity="5.0353205204010010e-01" nType="0">
        <Node pos="l" depth="1" NCoef="0" IVar="5" Cut="4.7107773437500000e+03" cType="1" res="-1.0439569503068924e-01" rms="2.4315991997718811e-01" purity="8.4042899310588837e-02" nType="0">
          <Node pos="l" depth="2" NCoef="0" IVar="-1" Cut="0.0000000000000000e+00" cType="1" res="-4.8571523278951645e-02" rms="2.1451880037784576e-01" purity="5.6527275592088699e-02" nType="-99"/>
          <Node pos="r" depth="2" NCoef="0" IVar="-1" Cut="0.0000000000000000e+00" cType="1" res="-2.2843739017844200e-02" rms="2.6459616422653198e-01" purity="1.1473995447158813e-01" nType="-99"/>
        </Node>
        <Node pos="r" depth="1" NCoef="0" IVar="4" Cut="5.1233047246932983e-01" cType="1" res="1.9745251163840294e-02" rms="3.3011204004287720e-01" purity="5.7394611835479736e-01" nType="0">
          <Node pos="l" depth="2" NCoef="0" IVar="-1" Cut="0.0000000000000000e+00" cType="1" res="-1.2533283792436123e-02" rms="3.2545688748359680e-01" purity="5.6594866514205933e-01" nType="-99"/>
          <Node pos="r" depth="2" NCoef="0" IVar="-1" Cut="0.0000000000000000e+00" cType="1" res="1.4857864938676357e-02" rms="3.2790714502334595e-01" purity="5.7808649539947510e-01" nType="-99"/>
        </Node>
      </Node>
    </BinaryTree>
    <BinaryTree type="DecisionTree" boostWeight="1.0000000000000000e+00" itree="37">
      <Node pos="s" depth="0" NCoef="0" IVar="0" Cut="1.7312856674194336e+01" cType="1" res="7.1777799166738987e-04" rms="3.2215836644172668e-01" purity="5.0005340576171875e-01" nType="0">
        <Node pos="l" depth="1" NCoef="0" IVar="-1" Cut="0.0000000000000000e+00" cType="1" res="-5.3947307169437408e-02" rms="2.6076704263687134e-01" purity="9.5550931990146637e-02" nType="-99"/>
        <Node pos="r" depth="1" NCoef="0" IVar="3" Cut="1.5396894836425781e+02" cType="1" res="1.3317190110683441e-02" rms="3.2318606972694397e-01" purity="5.3203725814819336e-01" nType="0">
          <Node pos="l" depth="2" NCoef="0" IVar="-1" Cut="0.0000000000000000e+00" cType="1" res="4.3512094765901566e-02" rms="2.4198612570762634e-01" purity="9.1429895162582397e-01" nType="-99"/>
          <Node pos="r" depth="2" NCoef="0" IVar="-1" Cut="0.0000000000000000e+00" cType="1" res="-5.4289813851937652e-04" rms="3.2857885956764221e-01" purity="4.8519656062126160e-01" nType="-99"/>
        </Node>
      </Node>
    </BinaryTree>
    <BinaryTree type="DecisionTree" boostWeight="1.0000000000000000e+00" itree="38">
      <Node pos="s" depth="0" NCoef="0" IVar="4" Cut="6.7164009809494019e-01" cType="1" res="-7.7066052472218871e-04" rms="3.2114979624748230e-01" purity="4.9964401125907898e-01" nType="0">
        <Node pos="l" depth="1" NCoef="0" IVar="3" Cut="1.9696365356445312e+02" cType="1" res="-1.8333330750465393e-02" rms="3.1436157226562500e-01" purity="4.6962618827819824e-01" nType="0">
          <Node pos="l" depth="2" NCoef="0" IVar="-1" Cut="0.0000000000000000e+00" cType="1" res="1.2620377354323864e-02" rms="3.3053794503211975e-01" purity="7.2996330261230469e-01" nType="-99"/>
          <Node pos="r" depth="2" NCoef="0" IVar="-1" Cut="0.0000000000000000e+00" cType="1" res="-2.7858784422278404e-02" rms="2.7764889597892761e-01" purity="1.5785194933414459e-01" nType="-99"/>
        </Node>
        <Node pos="r" depth="1" NCoef="0" IVar="3" Cut="2.6373730468750000e+02" cType="1" res="8.8759683072566986e-02" rms="3.3991292119026184e-01" purity="6.5266770124435425e-01" nType="0">
          <Node pos="l" depth="2" NCoef="0" IVar="-1" Cut="0.0000000000000000e+00" cType="1" res="5.0943434238433838e-02" rms="2.9099661111831665e-01" purity="8.1787383556365967e-01" nType="-99"/>
          <Node pos="r" depth="2" NCoef="0" IVar="-1" Cut="0.0000000000000000e+00" cType="1" res="-2.9256291687488556e-02" rms="3.3933800458908081e-01" purity="3.1644117832183838e-01" nType="-99"/>
        </Node>
      </Node>
    </BinaryTree>
    <BinaryTree type="DecisionTree" boostWeight="1.0000000000000000e+00" itree="39">
      <Node pos="s" depth="0" NCoef="0" IVar="5" Cut="4.4309467773437500e+03" cType="1" res="2.3581148125231266e-03" rms="3.1843799352645874e-01" purity="5.0475919246673584e-01" nType="0">
        <Node pos="l" depth="1" NCoef="0" IVar="4" Cut="7.2438919544219971e-01" cType="1" res="-5.7884834706783295e-02" rms="2.9917499423027039e-01" purity="4.7026419639587402e-01" nType="0">
          <Node pos="l" depth="2" NCoef="0" IVar="-1" Cut="0.0000000000000000e+00" cType="1" res="-2.7171403169631958e-02" rms="2.8204569220542908e-01" purity="4.0926015377044678e-01" nType="-99"/>
          <Node pos="r" depth="2" NCoef="0" IVar="-1" Cut="0.0000000000000000e+00" cType="1" res="2.3970238864421844e-02" rms="3.3939853310585022e-01" purity="7.9440420866012573e-01" nType="-99"/>
        </Node>
        <Node pos="r" depth="1" NCoef="0" IVar="4" Cut="5.9720003604888916e-01" cType="1" res="3.0650261789560318e-02" rms="3.2324165105819702e-01" purity="5.2095925807952881e-01" nType="0">
          <Node pos="l" depth="2" NCoef="0" IVar="-1" Cut="0.0000000000000000e+00" cType="1" res="-2.5136640761047602e-03" rms="3.0862882733345032e-01" purity="4.9689537286758423e-01" nType="-99"/>
          <Node pos="r" depth="2" NCoef="0" IVar="-1" Cut="0.0000000000000000e+00" cType="1" res="4.2166914790868759e-02" rms="3.3781018853187561e-01" purity="5.9582227468490601e-01" nType="-99"/>
        </Node>
      </Node>
    </BinaryTree>
    <BinaryTree type="DecisionTree" boostWeight="1.0000000000000000e+00" itree="40">
      <Node pos="s" depth="0" NCoef="0" IVar="0" Cut="1.7312856674194336e+01" cType="1" res="1.5758207300677896e-03" rms="3.1713432073593140e-01" purity="5.0287079811096191e-01" nType="0">
        <Node pos="l" depth="1" NCoef="0" IVar="-1" Cut="0.0000000000000000e+00" cType="1" res="-5.0723638385534286e-02" rms="2.7106502652168274e-01" purity="1.0226727277040482e-01" nType="-99"/>
        <Node pos="r" depth="1" NCoef="0" IVar="3" Cut="2.5477732849121094e+02" cType="1" res="1.2984455563127995e-02" rms="3.1767830252647400e-01" purity="5.3437089920043945e-01" nType="0">
          <Node pos="l" depth="2" NCoef="0" IVar="-1" Cut="0.0000000000000000e+00" cType="1" res="8.2039413973689079e-03" rms="3.1775245070457458e-01" purity="5.6763553619384766e-01" nType="-99"/>
          <Node pos="r" depth="2" NCoef="0" IVar="-1" Cut="0.0000000000000000e+00" cType="1" res="-3.0361903831362724e-02" rms="2.8970760107040405e-01" purity="2.4007894098758698e-01" nType="-99"/>
        </Node>
      </Node>
    </BinaryTree>
    <BinaryTree type="DecisionTree" boostWeight="1.0000000000000000e+00" itree="41">
      <Node pos="s" depth="0" NCoef="0" IVar="3" Cut="1.5396894836425781e+02" cType="1" res="2.2119134664535522e-03" rms="3.1520020961761475e-01" purity="5.0505840778350830e-01" nType="0">
        <Node pos="l" depth="1" NCoef="0" IVar="0" Cut="1.8785715103149414e+01" cType="1" res="1.1703719198703766e-01" rms="2.4405585229396820e-01" purity="9.0453583002090454e-01" nType="0">
          <Node pos="l" depth="2" NCoef="0" IVar="-1" Cut="0.0000000000000000e+00" cType="1" res="3.4141439944505692e-02" rms="2.4943386018276215e-01" purity="8.9032411575317383e-01" nType="-99"/>
          <Node pos="r" depth="2" NCoef="0" IVar="-1" Cut="0.0000000000000000e+00" cType="1" res="4.8307467252016068e-02" rms="2.3034995794296265e-01" purity="9.3176102638244629e-01" nType="-99"/>
        </Node>
        <Node pos="r" depth="1" NCoef="0" IVar="4" Cut="4.4506454467773438e-01" cType="1" res="-1.1397143825888634e-02" rms="3.1987333297729492e-01" purity="4.5771250128746033e-01" nType="0">
          <Node pos="l" depth="2" NCoef="0" IVar="-1" Cut="0.0000000000000000e+00" cType="1" res="-5.2631486207246780e-02" rms="3.4338793158531189e-01" purity="3.4631738066673279e-01" nType="-99"/>
          <Node pos="r" depth="2" NCoef="0" IVar="-1" Cut="0.0000000000000000e+00" cType="1" res="2.6098445523530245e-03" rms="3.1093949079513550e-01" purity="4.7046706080436707e-01" nType="-99"/>
        </Node>
      </Node>
    </BinaryTree>
    <BinaryTree type="DecisionTree" boostWeight="1.0000000000000000e+00" itree="42">
      <Node pos="s" depth="0" NCoef="0" IVar="1" Cut="1.2488572120666504e+01" cType="1" res="-8.7505567353218794e-04" rms="3.1417658925056458e-01" purity="5.0246405601501465e-01" nType="0">
        <Node pos="l" depth="1" NCoef="0" IVar="5" Cut="4.7101293945312500e+03" cType="1" res="-2.9801329597830772e-02" rms="3.2338255643844604e-01" purity="4.1472741961479187e-01" nType="0">
          <Node pos="l" depth="2" NCoef="0" IVar="-1" Cut="0.0000000000000000e+00" cType="1" res="-2.7388792484998703e-02" rms="2.9936546087265015e-01" purity="3.4611064195632935e-01" nType="-99"/>
          <Node pos="r" depth="2" NCoef="0" IVar="-1" Cut="0.0000000000000000e+00" cType="1" res="5.0439508631825447e-03" rms="3.3467882871627808e-01" purity="4.7070255875587463e-01" nType="-99"/>
        </Node>
        <Node pos="r" depth="1" NCoef="0" IVar="3" Cut="2.3241748046875000e+02" cType="1" res="5.4754577577114105e-02" rms="2.8760293126106262e-01" purity="6.7119508981704712e-01" nType="0">
          <Node pos="l" depth="2" NCoef="0" IVar="-1" Cut="0.0000000000000000e+00" cType="1" res="2.7960754930973053e-02" rms="2.7601525187492371e-01" purity="7.7462863922119141e-01" nType="-99"/>
          <Node pos="r" depth="2" NCoef="0" IVar="-1" Cut="0.0000000000000000e+00" cType="1" res="-1.5693735331296921e-02" rms="2.9631009697914124e-01" purity="3.2998368144035339e-01" nType="-99"/>
        </Node>
      </Node>
    </BinaryTree>
    <BinaryTree type="DecisionTree" boostWeight="1.0000000000000000e+00" itree="43">
      <Node pos="s" depth="0" NCoef="0" IVar="4" Cut="6.8707329034805298e-01" cType="1" res="1.0177887743338943e-03" rms="3.0944001674652100e-01" purity="5.0198489427566528e-01" nType="0">
        <Node pos="l" depth="1" NCoef="0" IVar="3" Cut="2.1876670837402344e+02" cType="1" res="-1.3064496219158173e-02" rms="3.0406802892684937e-01" purity="4.7370034456253052e-01" nType="0">
          <Node pos="l" depth="2" NCoef="0" IVar="-1" Cut="0.0000000000000000e+00" cType="1" res="5.4195257835090160e-03" rms="3.2225957512855530e-01" purity="6.0876584053039551e-01" nType="-99"/>
          <Node pos="r" depth="2" NCoef="0" IVar="-1" Cut="0.0000000000000000e+00" cType="1" res="-3.8390174508094788e-02" rms="2.1722279489040375e-01" purity="7.0368833839893341e-02" nType="-99"/>
        </Node>
        <Node pos="r" depth="1" NCoef="0" IVar="3" Cut="2.7097598266601562e+02" cType="1" res="9.9988088011741638e-02" rms="3.2821765542030334e-01" purity="7.0076847076416016e-01" nType="0">
          <Node pos="l" depth="2" NCoef="0" IVar="-1" Cut="0.0000000000000000e+00" cType="1" res="4.5551620423793793e-02" rms="2.8794676065444946e-01" purity="8.2699596881866455e-01" nType="-99"/>
          <Node pos="r" depth="2" NCoef="0" IVar="-1" Cut="0.0000000000000000e+00" cType="1" res="-1.5194398351013660e-02" rms="3.6184683442115784e-01" purity="3.9372408390045166e-01" nType="-99"/>
        </Node>
      </Node>
    </BinaryTree>
    <BinaryTree type="DecisionTree" boostWeight="1.0000000000000000e+00" itree="44">
      <Node pos="s" depth="0" NCoef="0" IVar="0" Cut="1.8928094863891602e+01" cType="1" res="-3.0704224482178688e-03" rms="3.0978721380233765e-01" purity="4.9608486890792847e-01" nType="0">
        <Node pos="l" depth="1" NCoef="0" IVar="1" Cut="1.1699999809265137e+01" cType="1" res="-2.2955432534217834e-02" rms="3.0549171566963196e-01" purity="4.7689509391784668e-01" nType="0">
          <Node pos="l" depth="2" NCoef="0" IVar="-1" Cut="0.0000000000000000e+00" cType="1" res="-2.7689069509506226e-02" rms="3.0169072747230530e-01" purity="2.4227434396743774e-01" nType="-99"/>
          <Node pos="r" depth="2" NCoef="0" IVar="-1" Cut="0.0000000000000000e+00" cType="1" res="3.2396151218563318e-03" rms="3.0238130688667297e-01" purity="6.0517334938049316e-01" nType="-99"/>
        </Node>
        <Node pos="r" depth="1" NCoef="0" IVar="4" Cut="4.9438846111297607e-01" cType="1" res="6.6280201077461243e-02" rms="3.1463783979415894e-01" purity="5.6301081180572510e-01" nType="0">
          <Node pos="l" depth="2" NCoef="0" IVar="-1" Cut="0.0000000000000000e+00" cType="1" res="-2.5143069797195494e-04" rms="2.9443097114562988e-01" purity="5.6105524301528931e-01" nType="-99"/>
          <Node pos="r" depth="2" NCoef="0" IVar="-1" Cut="0.0000000000000000e+00" cType="1" res="3.3876512199640274e-02" rms="3.1974136829376221e-01" purity="5.6435352563858032e-01" nType="-99"/>
        </Node>
      </Node>
    </BinaryTree>
    <BinaryTree type="DecisionTree" boostWeight="1.0000000000000000e+00" itree="45">
      <Node pos="s" depth="0" NCoef="0" IVar="0" Cut="1.8851903915405273e+01" cType="1" res="-1.7859141808003187e-03" rms="3.1002092361450195e-01" purity="5.0185710191726685e-01" nType="0">
        <Node pos="l" depth="1" NCoef="0" IVar="1" Cut="1.2671428680419922e+01" cType="1" res="-2.3904575034976006e-02" rms="3.0440038442611694e-01" purity="4.7457385063171387e-01" nType="0">
          <Node pos="l" depth="2" NCoef="0" IVar="-1" Cut="0.0000000000000000e+00" cType="1" res="-1.7784228548407555e-02" rms="3.1177985668182373e-01" purity="3.8412126898765564e-01" nType="-99"/>
          <Node pos="r" depth="2" NCoef="0" IVar="-1" Cut="0.0000000000000000e+00" cType="1" res="1.3074174523353577e-02" rms="2.7729654312133789e-01" purity="6.6143208742141724e-01" nType="-99"/>
        </Node>
        <Node pos="r" depth="1" NCoef="0" IVar="4" Cut="4.9265795946121216e-01" cType="1" res="6.2367182224988937e-02" rms="3.1716650724411011e-01" purity="5.8098953962326050e-01" nType="0">
          <Node pos="l" depth="2" NCoef="0" IVar="-1" Cut="0.0000000000000000e+00" cType="1" res="-1.7463936237618327e-03" rms="3.1290066242218018e-01" purity="5.7703983783721924e-01" nType="-99"/>
          <Node pos="r" depth="2" NCoef="0" IVar="-1" Cut="0.0000000000000000e+00" cType="1" res="3.1439904123544693e-02" rms="3.1245046854019165e-01" purity="5.8343309164047241e-01" nType="-99"/>
        </Node>
      </Node>
    </BinaryTree>
    <BinaryTree type="DecisionTree" boostWeight="1.0000000000000000e+00" itree="46">
      <Node pos="s" depth="0" NCoef="0" IVar="5" Cut="4.4867626953125000e+03" cType="1" res="-1.5817142557352781e-03" rms="3.0855953693389893e-01" purity="4.9975356459617615e-01" nType="0">
        <Node pos="l" depth="1" NCoef="0" IVar="4" Cut="7.4039381742477417e-01" cType="1" res="-4.9732636660337448e-02" rms="2.9053667187690735e-01" purity="4.6224698424339294e-01" nType="0">
          <Node pos="l" depth="2" NCoef="0" IVar="-1" Cut="0.0000000000000000e+00" cType="1" res="-2.3217789828777313e-02" rms="2.8155499696731567e-01" purity="4.1956248879432678e-01" nType="-99"/>
          <Node pos="r" depth="2" NCoef="0" IVar="-1" Cut="0.0000000000000000e+00" cType="1" res="3.7222012877464294e-02" rms="3.0021616816520691e-01" purity="8.5307687520980835e-01" nType="-99"/>
        </Node>
        <Node pos="r" depth="1" NCoef="0" IVar="4" Cut="5.3840982913970947e-01" cType="1" res="2.5853218510746956e-02" rms="3.1509894132614136e-01" purity="5.2112376689910889e-01" nType="0">
          <Node pos="l" depth="2" NCoef="0" IVar="-1" Cut="0.0000000000000000e+00" cType="1" res="-9.7675872966647148e-03" rms="3.0412158370018005e-01" purity="4.9516850709915161e-01" nType="-99"/>
          <Node pos="r" depth="2" NCoef="0" IVar="-1" Cut="0.0000000000000000e+00" cType="1" res="3.0550587922334671e-02" rms="3.1374523043632507e-01" purity="5.5581927299499512e-01" nType="-99"/>
        </Node>
      </Node>
    </BinaryTree>
    <BinaryTree type="DecisionTree" boostWeight="1.0000000000000000e+00" itree="47">
      <Node pos="s" depth="0" NCoef="0" IVar="3" Cut="1.8443440246582031e+02" cType="1" res="1.0659074177965522e-03" rms="3.0529898405075073e-01" purity="5.0387537479400635e-01" nType="0">
        <Node pos="l" depth="1" NCoef="0" IVar="3" Cut="1.6977703857421875e+02" cType="1" res="5.2350137382745743e-02" rms="3.0281209945678711e-01" purity="8.1411844491958618e-01" nType="0">
          <Node pos="l" depth="2" NCoef="0" IVar="-1" Cut="0.0000000000000000e+00" cType="1" res="2.9891995713114738e-02" rms="2.8081417083740234e-01" purity="8.6161118745803833e-01" nType="-99"/>
          <Node pos="r" depth="2" NCoef="0" IVar="-1" Cut="0.0000000000000000e+00" cType="1" res="-3.2963703852146864e-03" rms="3.2756063342094421e-01" purity="7.3416352272033691e-01" nType="-99"/>
        </Node>
        <Node pos="r" depth="1" NCoef="0" IVar="4" Cut="4.8902159929275513e-01" cType="1" res="-2.6615956798195839e-02" rms="3.0304759740829468e-01" purity="3.3641430735588074e-01" nType="0">
          <Node pos="l" depth="2" NCoef="0" IVar="-1" Cut="0.0000000000000000e+00" cType="1" res="-6.6209048032760620e-02" rms="1.6673374176025391e-01" purity="2.4367064237594604e-02" nType="-99"/>
          <Node pos="r" depth="2" NCoef="0" IVar="-1" Cut="0.0000000000000000e+00" cType="1" res="4.2221820331178606e-04" rms="3.0812504887580872e-01" purity="3.8170868158340454e-01" nType="-99"/>
        </Node>
      </Node>
    </BinaryTree>
    <BinaryTree type="DecisionTree" boostWeight="1.0000000000000000e+00" itree="48">
      <Node pos="s" depth="0" NCoef="0" IVar="1" Cut="1.0814762115478516e+01" cType="1" res="4.3697108048945665e-04" rms="3.0304074287414551e-01" purity="5.0222450494766235e-01" nType="0">
        <Node pos="l" depth="1" NCoef="0" IVar="1" Cut="9.4328575134277344e+00" cType="1" res="-8.1347890198230743e-02" rms="2.5119724869728088e-01" purity="1.1016898602247238e-01" nType="0">
          <Node pos="l" depth="2" NCoef="0" IVar="-1" Cut="0.0000000000000000e+00" cType="1" res="-5.4978698492050171e-02" rms="1.4897866547107697e-01" purity="1.9820131361484528e-02" nType="-99"/>
          <Node pos="r" depth="2" NCoef="0" IVar="-1" Cut="0.0000000000000000e+00" cType="1" res="-1.7555804923176765e-02" rms="2.9657629132270813e-01" purity="1.7039461433887482e-01" nType="-99"/>
        </Node>
        <Node pos="r" depth="1" NCoef="0" IVar="0" Cut="1.7818572998046875e+01" cType="1" res="1.7236702144145966e-02" rms="3.0996736884117126e-01" purity="5.8275806903839111e-01" nType="0">
          <Node pos="l" depth="2" NCoef="0" IVar="-1" Cut="0.0000000000000000e+00" cType="1" res="-1.9670370966196060e-02" rms="3.1609717011451721e-01" purity="4.5197173953056335e-01" nType="-99"/>
          <Node pos="r" depth="2" NCoef="0" IVar="-1" Cut="0.0000000000000000e+00" cType="1" res="1.1230849660933018e-02" rms="3.0537331104278564e-01" purity="6.1461752653121948e-01" nType="-99"/>
        </Node>
      </Node>
    </BinaryTree>
    <BinaryTree type="DecisionTree" boostWeight="1.0000000000000000e+00" itree="49">
      <Node pos="s" depth="0" NCoef="0" IVar="3" Cut="1.8443440246582031e+02" cType="1" res="-1.0064722737297416e-03" rms="3.0351197719573975e-01" purity="4.9996188282966614e-01" nType="0">
        <Node pos="l" depth="1" NCoef="0" IVar="3" Cut="1.6977703857421875e+02" cType="1" res="4.4764179736375809e-02" rms="3.0577543377876282e-01" purity="8.0516445636749268e-01" nType="0">
          <Node pos="l" depth="2" NCoef="0" IVar="-1" Cut="0.0000000000000000e+00" cType="1" res="2.8725620359182358e-02" rms="2.8163328766822815e-01" purity="8.5716295242309570e-01" nType="-99"/>
          <Node pos="r" depth="2" NCoef="0" IVar="-1" Cut="0.0000000000000000e+00" cType="1" res="-6.1497171409428120e-03" rms="3.3192372322082520e-01" purity="7.2149312496185303e-01" nType="-99"/>
        </Node>
        <Node pos="r" depth="1" NCoef="0" IVar="4" Cut="5.1398444175720215e-01" cType="1" res="-2.5549955666065216e-02" rms="2.9942321777343750e-01" purity="3.3630391955375671e-01" nType="0">
          <Node pos="l" depth="2" NCoef="0" IVar="-1" Cut="0.0000000000000000e+00" cType="1" res="-5.6841026991605759e-02" rms="1.8989582359790802e-01" purity="4.9703657627105713e-02" nType="-99"/>
          <Node pos="r" depth="2" NCoef="0" IVar="-1" Cut="0.0000000000000000e+00" cType="1" res="2.1425748709589243e-03" rms="3.0924394726753235e-01" purity="3.9978134632110596e-01" nType="-99"/>
        </Node>
      </Node>
    </BinaryTree>
    <BinaryTree type="DecisionTree" boostWeight="1.0000000000000000e+00" itree="50">
      <Node pos="s" depth="0" NCoef="0" IVar="5" Cut="5.1005937500000000e+03" cType="1" res="-2.6929785963147879e-03" rms="3.0014631152153015e-01" purity="4.9659594893455505e-01" nType="0">
        <Node pos="l" depth="1" NCoef="0" IVar="4" Cut="6.3929212093353271e-01" cType="1" res="-2.0300993695855141e-02" rms="2.9247024655342102e-01" purity="4.8200076818466187e-01" nType="0">
          <Node pos="l" depth="2" NCoef="0" IVar="-1" Cut="0.0000000000000000e+00" cType="1" res="-1.5872733667492867e-02" rms="2.8144276142120361e-01" purity="4.4343894720077515e-01" nType="-99"/>
          <Node pos="r" depth="2" NCoef="0" IVar="-1" Cut="0.0000000000000000e+00" cType="1" res="1.1150801554322243e-02" rms="3.0769371986389160e-01" purity="5.6709313392639160e-01" nType="-99"/>
        </Node>
        <Node pos="r" depth="1" NCoef="0" IVar="4" Cut="5.0291925668716431e-01" cType="1" res="6.3817657530307770e-02" rms="3.1886640191078186e-01" purity="5.5172598361968994e-01" nType="0">
          <Node pos="l" depth="2" NCoef="0" IVar="-1" Cut="0.0000000000000000e+00" cType="1" res="-6.5591302700340748e-03" rms="2.8927651047706604e-01" purity="4.9603956937789917e-01" nType="-99"/>
          <Node pos="r" depth="2" NCoef="0" IVar="-1" Cut="0.0000000000000000e+00" cType="1" res="5.8861322700977325e-02" rms="3.1743845343589783e-01" purity="6.4464360475540161e-01" nType="-99"/>
        </Node>
      </Node>
    </BinaryTree>
    <BinaryTree type="DecisionTree" boostWeight="1.0000000000000000e+00" itree="51">
      <Node pos="s" depth="0" NCoef="0" IVar="1" Cut="1.2488572120666504e+01" cType="1" res="-4.3623200617730618e-03" rms="2.9975685477256775e-01" purity="4.9303886294364929e-01" nType="0">
        <Node pos="l" depth="1" NCoef="0" IVar="5" Cut="4.7099804687500000e+03" cType="1" res="-2.7972245588898659e-02" rms="3.1043863296508789e-01" purity="4.0553435683250427e-01" nType="0">
          <Node pos="l" depth="2" NCoef="0" IVar="-1" Cut="0.0000000000000000e+00" cType="1" res="-2.5348560884594917e-02" rms="2.9093068838119507e-01" purity="3.3468624949455261e-01" nType="-99"/>
          <Node pos="r" depth="2" NCoef="0" IVar="-1" Cut="0.0000000000000000e+00" cType="1" res="3.9581432938575745e-03" rms="3.2024097442626953e-01" purity="4.6449837088584900e-01" nType="-99"/>
        </Node>
        <Node pos="r" depth="1" NCoef="0" IVar="3" Cut="2.3724699401855469e+02" cType="1" res="4.1691292077302933e-02" rms="2.7190425992012024e-01" purity="6.6372549533843994e-01" nType="0">
          <Node pos="l" depth="2" NCoef="0" IVar="-1" Cut="0.0000000000000000e+00" cType="1" res="2.2014016285538673e-02" rms="2.6470866799354553e-01" purity="7.4879479408264160e-01" nType="-99"/>
          <Node pos="r" depth="2" NCoef="0" IVar="-1" Cut="0.0000000000000000e+00" cType="1" res="-1.5123670920729637e-02" rms="2.7824756503105164e-01" purity="3.3773976564407349e-01" nType="-99"/>
        </Node>
      </Node>
    </BinaryTree>
    <BinaryTree type="DecisionTree" boostWeight="1.0000000000000000e+00" itree="52">
      <Node pos="s" depth="0" NCoef="0" IVar="0" Cut="1.7312856674194336e+01" cType="1" res="1.3968425337225199e-03" rms="2.9896560311317444e-01" purity="5.0568068027496338e-01" nType="0">
        <Node pos="l" depth="1" NCoef="0" IVar="-1" Cut="0.0000000000000000e+00" cType="1" res="-4.6336539089679718e-02" rms="2.5759160518646240e-01" purity="9.2473588883876801e-02" nType="-99"/>
        <Node pos="r" depth="1" NCoef="0" IVar="1" Cut="9.6500005722045898e+00" cType="1" res="1.0729962959885597e-02" rms="3.0011406540870667e-01" purity="5.3898376226425171e-01" nType="0">
          <Node pos="l" depth="2" NCoef="0" IVar="-1" Cut="0.0000000000000000e+00" cType="1" res="-4.9232512712478638e-02" rms="1.7503735423088074e-01" purity="3.2585702836513519e-02" nType="-99"/>
          <Node pos="r" depth="2" NCoef="0" IVar="-1" Cut="0.0000000000000000e+00" cType="1" res="6.3007371500134468e-03" rms="3.0537834763526917e-01" purity="5.7663750648498535e-01" nType="-99"/>
        </Node>
      </Node>
    </BinaryTree>
    <BinaryTree type="DecisionTree" boostWeight="1.0000000000000000e+00" itree="53">
      <Node pos="s" depth="0" NCoef="0" IVar="3" Cut="2.3287471008300781e+02" cType="1" res="2.0309018436819315e-03" rms="2.9731446504592896e-01" purity="5.0515508651733398e-01" nType="0">
        <Node pos="l" depth="1" NCoef="0" IVar="4" Cut="6.1705720424652100e-01" cType="1" res="2.1020939573645592e-02" rms="3.0317363142967224e-01" purity="5.7932835817337036e-01" nType="0">
          <Node pos="l" depth="2" NCoef="0" IVar="-1" Cut="0.0000000000000000e+00" cType="1" res="-3.4082781057804823e-03" rms="2.9931724071502686e-01" purity="5.1936316490173340e-01" nType="-99"/>
          <Node pos="r" depth="2" NCoef="0" IVar="-1" Cut="0.0000000000000000e+00" cType="1" res="4.2571034282445908e-02" rms="2.8915855288505554e-01" purity="7.9988819360733032e-01" nType="-99"/>
        </Node>
        <Node pos="r" depth="1" NCoef="0" IVar="4" Cut="7.3543256521224976e-01" cType="1" res="-7.0772983133792877e-02" rms="2.6119777560234070e-01" purity="2.2079014778137207e-01" nType="0">
          <Node pos="l" depth="2" NCoef="0" IVar="-1" Cut="0.0000000000000000e+00" cType="1" res="-3.8648884743452072e-02" rms="2.2689650952816010e-01" purity="1.0072274506092072e-01" nType="-99"/>
          <Node pos="r" depth="2" NCoef="0" IVar="-1" Cut="0.0000000000000000e+00" cType="1" res="3.2270878553390503e-02" rms="3.1895461678504944e-01" purity="8.0968970060348511e-01" nType="-99"/>
        </Node>
      </Node>
    </BinaryTree>
    <BinaryTree type="DecisionTree" boostWeight="1.0000000000000000e+00" itree="54">
      <Node pos="s" depth="0" NCoef="0" IVar="3" Cut="1.5812129211425781e+02" cType="1" res="-8.2269776612520218e-04" rms="2.9624751210212708e-01" purity="4.9950605630874634e-01" nType="0">
        <Node pos="l" depth="1" NCoef="0" IVar="3" Cut="1.4524270629882812e+02" cType="1" res="9.6859365701675415e-02" rms="2.5564110279083252e-01" purity="8.9997768402099609e-01" nType="0">
          <Node pos="l" depth="2" NCoef="0" IVar="-1" Cut="0.0000000000000000e+00" cType="1" res="4.3372735381126404e-02" rms="2.3155981302261353e-01" purity="9.2862159013748169e-01" nType="-99"/>
          <Node pos="r" depth="2" NCoef="0" IVar="-1" Cut="0.0000000000000000e+00" cType="1" res="2.7034509927034378e-02" rms="2.7477067708969116e-01" purity="8.7267482280731201e-01" nType="-99"/>
        </Node>
        <Node pos="r" depth="1" NCoef="0" IVar="4" Cut="4.1108283400535583e-01" cType="1" res="-1.5166712924838066e-02" rms="2.9907608032226562e-01" purity="4.4069927930831909e-01" nType="0">
          <Node pos="l" depth="2" NCoef="0" IVar="-1" Cut="0.0000000000000000e+00" cType="1" res="-7.7899657189846039e-02" rms="3.3839613199234009e-01" purity="2.2875912487506866e-01" nType="-99"/>
          <Node pos="r" depth="2" NCoef="0" IVar="-1" Cut="0.0000000000000000e+00" cType="1" res="-1.2876787222921848e-03" rms="2.9217380285263062e-01" purity="4.5018187165260315e-01" nType="-99"/>
        </Node>
      </Node>
    </BinaryTree>
    <BinaryTree type="DecisionTree" boostWeight="1.0000000000000000e+00" itree="55">
      <Node pos="s" depth="0" NCoef="0" IVar="3" Cut="1.9145683288574219e+02" cType="1" res="-6.6020258236676455e-04" rms="2.9337224364280701e-01" purity="5.0001657009124756e-01" nType="0">
        <Node pos="l" depth="1" NCoef="0" IVar="0" Cut="1.7784286499023438e+01" cType="1" res="3.8403678685426712e-02" rms="3.0173453688621521e-01" purity="7.6754504442214966e-01" nType="0">
          <Node pos="l" depth="2" NCoef="0" IVar="-1" Cut="0.0000000000000000e+00" cType="1" res="-1.7216194421052933e-02" rms="3.2479837536811829e-01" purity="5.8745348453521729e-01" nType="-99"/>
          <Node pos="r" depth="2" NCoef="0" IVar="-1" Cut="0.0000000000000000e+00" cType="1" res="1.8965505063533783e-02" rms="2.9438704252243042e-01" purity="8.0111014842987061e-01" nType="-99"/>
        </Node>
        <Node pos="r" depth="1" NCoef="0" IVar="4" Cut="6.0788100957870483e-01" cType="1" res="-2.8809379786252975e-02" rms="2.8388249874114990e-01" purity="3.0723720788955688e-01" nType="0">
          <Node pos="l" depth="2" NCoef="0" IVar="-1" Cut="0.0000000000000000e+00" cType="1" res="-3.3257778733968735e-02" rms="2.3175506293773651e-01" purity="1.2374024093151093e-01" nType="-99"/>
          <Node pos="r" depth="2" NCoef="0" IVar="-1" Cut="0.0000000000000000e+00" cType="1" res="8.5673648864030838e-03" rms="3.1111165881156921e-01" purity="4.6647316217422485e-01" nType="-99"/>
        </Node>
      </Node>
    </BinaryTree>
    <BinaryTree type="DecisionTree" boostWeight="1.0000000000000000e+00" itree="56">
      <Node pos="s" depth="0" NCoef="0" IVar="5" Cut="4.3193676757812500e+03" cType="1" res="-4.7250758507288992e-04" rms="2.9097476601600647e-01" purity="4.9770754575729370e-01" nType="0">
        <Node pos="l" depth="1" NCoef="0" IVar="4" Cut="7.2040790319442749e-01" cType="1" res="-5.8161601424217224e-02" rms="2.7280306816101074e-01" purity="4.5312213897705078e-01" nType="0">
          <Node pos="l" depth="2" NCoef="0" IVar="-1" Cut="0.0000000000000000e+00" cType="1" res="-3.1304210424423218e-02" rms="2.5089785456657410e-01" purity="3.7115219235420227e-01" nType="-99"/>
          <Node pos="r" depth="2" NCoef="0" IVar="-1" Cut="0.0000000000000000e+00" cType="1" res="1.7324956133961678e-02" rms="3.2201424241065979e-01" purity="7.8754442930221558e-01" nType="-99"/>
        </Node>
        <Node pos="r" depth="1" NCoef="0" IVar="4" Cut="6.0805743932723999e-01" cType="1" res="1.6216576099395752e-02" rms="2.9391965270042419e-01" purity="5.1060581207275391e-01" nType="0">
          <Node pos="l" depth="2" NCoef="0" IVar="-1" Cut="0.0000000000000000e+00" cType="1" res="-4.3357843533158302e-03" rms="2.8401923179626465e-01" purity="4.8214989900588989e-01" nType="-99"/>
          <Node pos="r" depth="2" NCoef="0" IVar="-1" Cut="0.0000000000000000e+00" cType="1" res="3.1176477670669556e-02" rms="3.0613505840301514e-01" purity="5.9795027971267700e-01" nType="-99"/>
        </Node>
      </Node>
    </BinaryTree>
    <BinaryTree type="DecisionTree" boostWeight="1.0000000000000000e+00" itree="57">
      <Node pos="s" depth="0" NCoef="0" IVar="3" Cut="1.5023631286621094e+02" cType="1" res="-4.0923040360212326e-03" rms="2.8969383239746094e-01" purity="4.9511024355888367e-01" nType="0">
        <Node pos="l" depth="1" NCoef="0" IVar="3" Cut="1.3394949340820312e+02" cType="1" res="9.9438458681106567e-02" rms="2.3438400030136108e-01" purity="9.1829854249954224e-01" nType="0">
          <Node pos="l" depth="2" NCoef="0" IVar="-1" Cut="0.0000000000000000e+00" cType="1" res="4.6514946967363358e-02" rms="2.0998749136924744e-01" purity="9.4041371345520020e-01" nType="-99"/>
          <Node pos="r" depth="2" NCoef="0" IVar="-1" Cut="0.0000000000000000e+00" cType="1" res="3.2500855624675751e-02" rms="2.4548445641994476e-01" purity="9.0592318773269653e-01" nType="-99"/>
        </Node>
        <Node pos="r" depth="1" NCoef="0" IVar="4" Cut="4.5071870088577271e-01" cType="1" res="-1.3580800034105778e-02" rms="2.9241535067558289e-01" purity="4.5632547140121460e-01" nType="0">
          <Node pos="l" depth="2" NCoef="0" IVar="-1" Cut="0.0000000000000000e+00" cType="1" res="-4.0006492286920547e-02" rms="3.0943053960800171e-01" purity="3.7213993072509766e-01" nType="-99"/>
          <Node pos="r" depth="2" NCoef="0" IVar="-1" Cut="0.0000000000000000e+00" cType="1" res="7.1065168594941497e-04" rms="2.8647220134735107e-01" purity="4.6806484460830688e-01" nType="-99"/>
        </Node>
      </Node>
    </BinaryTree>
    <BinaryTree type="DecisionTree" boostWeight="1.0000000000000000e+00" itree="58">
      <Node pos="s" depth="0" NCoef="0" IVar="5" Cut="4.7657314453125000e+03" cType="1" res="-4.3433113023638725e-03" rms="2.8849694132804871e-01" purity="4.9139854311943054e-01" nType="0">
        <Node pos="l" depth="1" NCoef="0" IVar="1" Cut="1.2671428680419922e+01" cType="1" res="-3.3145599067211151e-02" rms="2.7801623940467834e-01" purity="4.7213339805603027e-01" nType="0">
          <Node pos="l" depth="2" NCoef="0" IVar="-1" Cut="0.0000000000000000e+00" cType="1" res="-2.1666763350367546e-02" rms="2.8433400392532349e-01" purity="3.6811846494674683e-01" nType="-99"/>
          <Node pos="r" depth="2" NCoef="0" IVar="-1" Cut="0.0000000000000000e+00" cType="1" res="6.1679566279053688e-03" rms="2.5898995995521545e-01" purity="6.5004795789718628e-01" nType="-99"/>
        </Node>
        <Node pos="r" depth="1" NCoef="0" IVar="4" Cut="5.1802718639373779e-01" cType="1" res="3.3388763666152954e-02" rms="2.9748660326004028e-01" purity="5.1663666963577271e-01" nType="0">
          <Node pos="l" depth="2" NCoef="0" IVar="-1" Cut="0.0000000000000000e+00" cType="1" res="-8.6482390761375427e-03" rms="2.7657729387283325e-01" purity="4.8581504821777344e-01" nType="-99"/>
          <Node pos="r" depth="2" NCoef="0" IVar="-1" Cut="0.0000000000000000e+00" cType="1" res="3.7536613643169403e-02" rms="3.0644807219505310e-01" purity="5.6392407417297363e-01" nType="-99"/>
        </Node>
      </Node>
    </BinaryTree>
    <BinaryTree type="DecisionTree" boostWeight="1.0000000000000000e+00" itree="59">
      <Node pos="s" depth="0" NCoef="0" IVar="5" Cut="4.8774018554687500e+03" cType="1" res="3.5689482465386391e-03" rms="2.8536435961723328e-01" purity="5.0408113002777100e-01" nType="0">
        <Node pos="l" depth="1" NCoef="0" IVar="1" Cut="1.2860952377319336e+01" cType="1" res="-1.8957743421196938e-02" rms="2.7568140625953674e-01" purity="4.8605927824974060e-01" nType="0">
          <Node pos="l" depth="2" NCoef="0" IVar="-1" Cut="0.0000000000000000e+00" cType="1" res="-1.4572977088391781e-02" rms="2.8557255864143372e-01" purity="4.1267934441566467e-01" nType="-99"/>
          <Node pos="r" depth="2" NCoef="0" IVar="-1" Cut="0.0000000000000000e+00" cType="1" res="1.3761317357420921e-02" rms="2.3913893103599548e-01" purity="6.7149841785430908e-01" nType="-99"/>
        </Node>
        <Node pos="r" depth="1" NCoef="0" IVar="4" Cut="5.7186013460159302e-01" cType="1" res="4.5287854969501495e-02" rms="2.9801607131958008e-01" purity="5.3745716810226440e-01" nType="0">
          <Node pos="l" depth="2" NCoef="0" IVar="-1" Cut="0.0000000000000000e+00" cType="1" res="3.3552944660186768e-03" rms="2.8165590763092041e-01" purity="5.0367397069931030e-01" nType="-99"/>
          <Node pos="r" depth="2" NCoef="0" IVar="-1" Cut="0.0000000000000000e+00" cType="1" res="5.3249280899763107e-02" rms="3.1760621070861816e-01" purity="6.7989861965179443e-01" nType="-99"/>
        </Node>
      </Node>
    </BinaryTree>
    <BinaryTree type="DecisionTree" boostWeight="1.0000000000000000e+00" itree="60">
      <Node pos="s" depth="0" NCoef="0" IVar="3" Cut="2.1876670837402344e+02" cType="1" res="-1.1421549133956432e-03" rms="2.8703474998474121e-01" purity="4.9992635846138000e-01" nType="0">
        <Node pos="l" depth="1" NCoef="0" IVar="4" Cut="5.4337042570114136e-01" cType="1" res="1.9065862521529198e-02" rms="2.9707199335098267e-01" purity="6.2164169549942017e-01" nType="0">
          <Node pos="l" depth="2" NCoef="0" IVar="-1" Cut="0.0000000000000000e+00" cType="1" res="-6.6826278343796730e-03" rms="2.9591348767280579e-01" purity="5.4319012165069580e-01" nType="-99"/>
          <Node pos="r" depth="2" NCoef="0" IVar="-1" Cut="0.0000000000000000e+00" cType="1" res="2.3223925381898880e-02" rms="2.9082143306732178e-01" purity="7.2489732503890991e-01" nType="-99"/>
        </Node>
        <Node pos="r" depth="1" NCoef="0" IVar="4" Cut="6.7750132083892822e-01" cType="1" res="-4.5101877301931381e-02" rms="2.5848481059074402e-01" purity="2.3515166342258453e-01" nType="0">
          <Node pos="l" depth="2" NCoef="0" IVar="-1" Cut="0.0000000000000000e+00" cType="1" res="-3.8296755403280258e-02" rms="1.8868996202945709e-01" purity="6.2107596546411514e-02" nType="-99"/>
          <Node pos="r" depth="2" NCoef="0" IVar="-1" Cut="0.0000000000000000e+00" cType="1" res="1.1611645109951496e-02" rms="3.3644652366638184e-01" purity="5.5855095386505127e-01" nType="-99"/>
        </Node>
      </Node>
    </BinaryTree>
    <BinaryTree type="DecisionTree" boostWeight="1.0000000000000000e+00" itree="61">
      <Node pos="s" depth="0" NCoef="0" IVar="3" Cut="1.5254808044433594e+02" cType="1" res="-5.5370894260704517e-03" rms="2.8807356953620911e-01" purity="4.9218696355819702e-01" nType="0">
        <Node pos="l" depth="1" NCoef="0" IVar="0" Cut="1.8309999465942383e+01" cType="1" res="9.7114384174346924e-02" rms="2.2336436808109283e-01" purity="9.1263294219970703e-01" nType="0">
          <Node pos="l" depth="2" NCoef="0" IVar="-1" Cut="0.0000000000000000e+00" cType="1" res="2.6778358966112137e-02" rms="2.3975914716720581e-01" purity="8.7147355079650879e-01" nType="-99"/>
          <Node pos="r" depth="2" NCoef="0" IVar="-1" Cut="0.0000000000000000e+00" cType="1" res="4.6412996947765350e-02" rms="2.0640070736408234e-01" purity="9.4625508785247803e-01" nType="-99"/>
        </Node>
        <Node pos="r" depth="1" NCoef="0" IVar="4" Cut="4.3623673915863037e-01" cType="1" res="-1.6178390011191368e-02" rms="2.9191017150878906e-01" purity="4.4860172271728516e-01" nType="0">
          <Node pos="l" depth="2" NCoef="0" IVar="-1" Cut="0.0000000000000000e+00" cType="1" res="-4.4275533407926559e-02" rms="3.2166293263435364e-01" purity="3.3141851425170898e-01" nType="-99"/>
          <Node pos="r" depth="2" NCoef="0" IVar="-1" Cut="0.0000000000000000e+00" cType="1" res="-1.0368205839768052e-03" rms="2.8544476628303528e-01" purity="4.6075567603111267e-01" nType="-99"/>
        </Node>
      </Node>
    </BinaryTree>
    <BinaryTree type="DecisionTree" boostWeight="1.0000000000000000e+00" itree="62">
      <Node pos="s" depth="0" NCoef="0" IVar="3" Cut="1.8457652282714844e+02" cType="1" res="3.7147445254959166e-04" rms="2.8133422136306763e-01" purity="5.0118082761764526e-01" nType="0">
        <Node pos="l" depth="1" NCoef="0" IVar="3" Cut="1.7480656433105469e+02" cType="1" res="4.5849885791540146e-02" rms="2.8772154450416565e-01" purity="8.1225883960723877e-01" nType="0">
          <Node pos="l" depth="2" NCoef="0" IVar="-1" Cut="0.0000000000000000e+00" cType="1" res="2.6508722454309464e-02" rms="2.6844596862792969e-01" purity="8.4966522455215454e-01" nType="-99"/>
          <Node pos="r" depth="2" NCoef="0" IVar="-1" Cut="0.0000000000000000e+00" cType="1" res="-1.0896438732743263e-02" rms="3.2642519474029541e-01" purity="7.0290124416351318e-01" nType="-99"/>
        </Node>
        <Node pos="r" depth="1" NCoef="0" IVar="4" Cut="5.2646863460540771e-01" cType="1" res="-2.4490341544151306e-02" rms="2.7461451292037964e-01" purity="3.3112287521362305e-01" nType="0">
          <Node pos="l" depth="2" NCoef="0" IVar="-1" Cut="0.0000000000000000e+00" cType="1" res="-4.6434313058853149e-02" rms="1.9041462242603302e-01" purity="6.3523203134536743e-02" nType="-99"/>
          <Node pos="r" depth="2" NCoef="0" IVar="-1" Cut="0.0000000000000000e+00" cType="1" res="8.5479172412306070e-04" rms="2.8798675537109375e-01" purity="4.0567806363105774e-01" nType="-99"/>
        </Node>
      </Node>
    </BinaryTree>
    <BinaryTree type="DecisionTree" boostWeight="1.0000000000000000e+00" itree="63">
      <Node pos="s" depth="0" NCoef="0" IVar="3" Cut="1.9190437316894531e+02" cType="1" res="7.9175090650096536e-04" rms="2.8152647614479065e-01" purity="4.9523738026618958e-01" nType="0">
        <Node pos="l" depth="1" NCoef="0" IVar="2" Cut="5.3244358062744141e+01" cType="1" res="4.2828090488910675e-02" rms="2.9323264956474304e-01" purity="7.7511078119277954e-01" nType="0">
          <Node pos="l" depth="2" NCoef="0" IVar="-1" Cut="0.0000000000000000e+00" cType="1" res="5.5234362371265888e-03" rms="3.0949947237968445e-01" purity="7.2845709323883057e-01" nType="-99"/>
          <Node pos="r" depth="2" NCoef="0" IVar="-1" Cut="0.0000000000000000e+00" cType="1" res="4.0701802819967270e-02" rms="2.3526884615421295e-01" purity="8.9036053419113159e-01" nType="-99"/>
        </Node>
        <Node pos="r" depth="1" NCoef="0" IVar="4" Cut="6.0341680049896240e-01" cType="1" res="-2.9180783778429031e-02" rms="2.6888945698738098e-01" purity="2.9568350315093994e-01" nType="0">
          <Node pos="l" depth="2" NCoef="0" IVar="-1" Cut="0.0000000000000000e+00" cType="1" res="-3.3198341727256775e-02" rms="2.1204763650894165e-01" purity="1.0677214711904526e-01" nType="-99"/>
          <Node pos="r" depth="2" NCoef="0" IVar="-1" Cut="0.0000000000000000e+00" cType="1" res="5.4889223538339138e-03" rms="3.0034044384956360e-01" purity="4.5288783311843872e-01" nType="-99"/>
        </Node>
      </Node>
    </BinaryTree>
    <BinaryTree type="DecisionTree" boostWeight="1.0000000000000000e+00" itree="64">
      <Node pos="s" depth="0" NCoef="0" IVar="3" Cut="2.5295690917968750e+02" cType="1" res="-7.6909299241378903e-04" rms="2.8456059098243713e-01" purity="4.9929803609848022e-01" nType="0">
        <Node pos="l" depth="1" NCoef="0" IVar="4" Cut="6.4163535833358765e-01" cType="1" res="1.1075255461037159e-02" rms="2.8541541099548340e-01" purity="5.3535801172256470e-01" nType="0">
          <Node pos="l" depth="2" NCoef="0" IVar="-1" Cut="0.0000000000000000e+00" cType="1" res="-3.5758437588810921e-03" rms="2.8199073672294617e-01" purity="4.8856347799301147e-01" nType="-99"/>
          <Node pos="r" depth="2" NCoef="0" IVar="-1" Cut="0.0000000000000000e+00" cType="1" res="3.4025028347969055e-02" rms="2.8169545531272888e-01" purity="7.4630665779113770e-01" nType="-99"/>
